/*
 * Copyright (c) 2026 EdgeImpulse Inc.
 *
 * Generated by Edge Impulse and licensed under the applicable Edge Impulse
 * Terms of Service. Community and Professional Terms of Service
 * (https://edgeimpulse.com/legal/terms-of-service) or Enterprise Terms of
 * Service (https://edgeimpulse.com/legal/enterprise-terms-of-service),
 * according to your product plan subscription (the “License”).
 *
 * This software, documentation and other associated files (collectively referred
 * to as the “Software”) is a single SDK variation generated by the Edge Impulse
 * platform and requires an active paid Edge Impulse subscription to use this
 * Software for any purpose.
 *
 * You may NOT use this Software unless you have an active Edge Impulse subscription
 * that meets the eligibility requirements for the applicable License, subject to
 * your full and continued compliance with the terms and conditions of the License,
 * including without limitation any usage restrictions under the applicable License.
 *
 * If you do not have an active Edge Impulse product plan subscription, or if use
 * of this Software exceeds the usage limitations of your Edge Impulse product plan
 * subscription, you are not permitted to use this Software and must immediately
 * delete and erase all copies of this Software within your control or possession.
 * Edge Impulse reserves all rights and remedies available to enforce its rights.
 *
 * Unless required by applicable law or agreed to in writing, the Software is
 * distributed on an "AS IS" BASIS, WITHOUT WARRANTIES OR CONDITIONS OF ANY KIND,
 * either express or implied. See the License for the specific language governing
 * permissions, disclaimers and limitations under the License.
 */
// Generated on: 23.02.2026 14:14:02

#include <stdio.h>
#include <stdlib.h>
#include "edge-impulse-sdk/tensorflow/lite/c/builtin_op_data.h"
#include "edge-impulse-sdk/tensorflow/lite/c/common.h"
#include "edge-impulse-sdk/tensorflow/lite/micro/micro_mutable_op_resolver.h"
#include "edge-impulse-sdk/porting/ei_classifier_porting.h"

#if EI_CLASSIFIER_PRINT_STATE
#if defined(__cplusplus) && EI_C_LINKAGE == 1
extern "C" {
    extern void ei_printf(const char *format, ...);
}
#else
extern void ei_printf(const char *format, ...);
#endif
#endif

#define STRINGIZE(x) #x
#define STRINGIZE_VALUE_OF(x) STRINGIZE(x)

#if defined (__GNUC__)  /* GNU compiler */
#define ALIGN(X) __attribute__((aligned(X)))
#define DEFINE_SECTION(x) __attribute__((section(x)))
#elif defined (_MSC_VER)
#define ALIGN(X) __declspec(align(X))
#elif defined (__TASKING__) /* TASKING Compiler */
#define ALIGN(X) __align(X)
#define DEFINE_SECTION(x) __attribute__((section(x)))
#elif defined (__ARMCC_VERSION) /* Arm Compiler */
#define ALIGN(X) __ALIGNED(x)
#define DEFINE_SECTION(x) __attribute__((section(x)))
#elif defined (__ICCARM__) /* IAR Compiler */
#define ALIGN(x) __attribute__((aligned(x)))
#define DEFINE_SECTION(x) __attribute__((section(x)))
#elif defined (__clang__) /* LLVM/Clang Compiler */
#define ALIGN(X) __ALIGNED(x)
#define DEFINE_SECTION(x) __attribute__((section(x)))
#endif

#if defined(EI_MODEL_SECTION) && (defined(__GNUC__) || defined(__clang__))
#define MODEL_SECTION(X) __attribute__((section(STRINGIZE_VALUE_OF(X))))
#else
#define MODEL_SECTION(X)
#endif

#ifndef EI_MAX_SCRATCH_BUFFER_COUNT
#ifndef CONFIG_IDF_TARGET_ESP32S3
#define EI_MAX_SCRATCH_BUFFER_COUNT 4
#else
#define EI_MAX_SCRATCH_BUFFER_COUNT 8
#endif // CONFIG_IDF_TARGET_ESP32S3
#endif // EI_MAX_SCRATCH_BUFFER_COUNT

#ifndef EI_MAX_OVERFLOW_BUFFER_COUNT
#define EI_MAX_OVERFLOW_BUFFER_COUNT 10
#endif // EI_MAX_OVERFLOW_BUFFER_COUNT

using namespace tflite;
using namespace tflite::ops;
using namespace tflite::ops::micro;

namespace {

#if defined(EI_CLASSIFIER_ALLOCATION_STATIC_HIMAX) || defined(EI_CLASSIFIER_ALLOCATION_STATIC_HIMAX_GNU)
constexpr int kTensorArenaSize = 84432;
#else
constexpr int kTensorArenaSize = 83408;
#endif

#if defined(EI_CLASSIFIER_ALLOCATION_STATIC)
#if defined (EI_TENSOR_ARENA_LOCATION)
uint8_t tensor_arena[kTensorArenaSize] ALIGN(16) DEFINE_SECTION(STRINGIZE_VALUE_OF(EI_TENSOR_ARENA_LOCATION));
#else
uint8_t tensor_arena[kTensorArenaSize] ALIGN(16);
#endif
#elif defined(EI_CLASSIFIER_ALLOCATION_STATIC_HIMAX)
#pragma Bss(".tensor_arena")
uint8_t tensor_arena[kTensorArenaSize] ALIGN(16);
#pragma Bss()
#elif defined(EI_CLASSIFIER_ALLOCATION_STATIC_HIMAX_GNU)
uint8_t tensor_arena[kTensorArenaSize] ALIGN(16) __attribute__((section(".tensor_arena")));
#else
#define EI_CLASSIFIER_ALLOCATION_HEAP 1
uint8_t* tensor_arena = NULL;
#endif

static uint8_t* tensor_boundary;
static uint8_t* current_location;

template <int SZ, class T> struct TfArray {
  int sz; T elem[SZ];
};

enum used_operators_e {
  OP_CONV_2D, OP_MAX_POOL_2D, OP_RESHAPE, OP_FULLY_CONNECTED, OP_SOFTMAX,  OP_LAST
};

struct TensorInfo_t { // subset of TfLiteTensor used for initialization from constant memory
  TfLiteAllocationType allocation_type;
  TfLiteType type;
  void* data;
  TfLiteIntArray* dims;
  size_t bytes;
  TfLiteQuantization quantization;
};

typedef struct {
  TfLiteTensor tensor;
  int16_t index;
} TfLiteTensorWithIndex;

typedef struct {
  TfLiteEvalTensor tensor;
  int16_t index;
} TfLiteEvalTensorWithIndex;

TfLiteContext ctx{};
static const int MAX_TFL_TENSOR_COUNT = 4;
static TfLiteTensorWithIndex tflTensors[MAX_TFL_TENSOR_COUNT];
static const int MAX_TFL_EVAL_COUNT = 4;
static TfLiteEvalTensorWithIndex tflEvalTensors[MAX_TFL_EVAL_COUNT];
TfLiteRegistration registrations[OP_LAST];

namespace g0 {
const TfArray<4, int> tensor_dimension0 = { 4, { 1,64,64,3 } };
const TfArray<1, float> quant0_scale = { 1, { 0.0039215688593685627, } };
const TfArray<1, int> quant0_zero = { 1, { -128 } };
const TfLiteAffineQuantization quant0 = { (TfLiteFloatArray*)&quant0_scale, (TfLiteIntArray*)&quant0_zero, 0 };
const MODEL_SECTION(EI_MODEL_SECTION) ALIGN(8) int32_t tensor_data1[2] = { -1, 8192, };
const TfArray<1, int> tensor_dimension1 = { 1, { 2 } };
const MODEL_SECTION(EI_MODEL_SECTION) ALIGN(8) int32_t tensor_data2[3] = { -1352, 524, 1406, };
const TfArray<1, int> tensor_dimension2 = { 1, { 3 } };
const TfArray<1, float> quant2_scale = { 1, { 9.7917029506788822e-07, } };
const TfArray<1, int> quant2_zero = { 1, { 0 } };
const TfLiteAffineQuantization quant2 = { (TfLiteFloatArray*)&quant2_scale, (TfLiteIntArray*)&quant2_zero, 0 };
const MODEL_SECTION(EI_MODEL_SECTION) ALIGN(16) int8_t tensor_data3[3*8192] = { 
  70, 26, 75, -62, -33, 50, 66, -63, -70, 75, 61, -26, 51, -79, 50, 19, -38, -94, 13, 27, -74, 108, 89, 36, -60, -76, 63, -60, -79, -39, 38, -87, 27, 9, -99, -31, 50, -91, -85, 82, -33, -48, 46, 37, 68, -41, 80, -59, 30, 19, -75, -82, 7, -49, 13, 32, 24, -87, 72, -88, -1, 43, -19, -50, 48, 34, -26, 96, -61, 65, 20, -60, -62, 39, -73, 73, -61, 31, 59, 77, -15, -83, 73, 7, 94, -10, 65, 6, -64, 84, -18, -2, 20, 86, 71, -50, 9, -26, 50, 54, -50, 96, -32, 60, 61, -52, 15, 13, 9, 90, -17, 30, 42, 102, -11, -81, 40, 34, -56, 31, 85, -44, 44, -70, -64, 20, 82, -55, 80, -43, -72, 90, 93, -85, -25, -1, 103, -62, 70, 15, -13, 47, 19, -58, -14, 74, -62, 41, 81, 6, 107, -41, -3, -82, 8, -7, 93, -76, 65, -33, 107, -51, -85, 90, -12, 34, 2, -11, 38, 16, -5, 31, 56, 16, 88, 20, -64, -22, 77, 62, 86, -50, -20, -7, 14, 75, 11, -3, -81, 23, 54, -42, 82, 93, -47, 56, 47, 22, 35, 87, 3, 82, 60, -3, 86, -67, 65, 86, -15, -92, -53, 87, 93, -49, -74, 12, 97, 13, 10, -4, -2, -4, 37, 34, -74, 17, 15, 61, 39, 8, 39, -18, 99, 85, -13, 22, -16, 71, -74, 25, -5, 82, -84, -4, 85, -44, -31, 52, -6, -29, -48, 82, 95, 107, -24, 31, 19, -17, 63, 93, -65, -78, 42, 13, -65, 58, 68, 67, 65, 8, 11, 67, -66, -67, 27, 8, -28, -65, 92, -72, -70, -73, -62, -79, 58, 76, -76, 53, -84, 12, 51, -59, -83, -80, 28, 67, 39, -52, -34, -4, 13, 106, 60, 46, -70, -59, 55, 31, -94, 85, 32, 57, -22, 86, -36, -65, 44, 79, -13, -37, 90, -86, 73, 33, 54, 65, -42, 105, 20, -73, 1, -65, 71, 14, 7, -17, -83, 66, -77, 88, -72, 12, 100, 41, 60, -31, -34, 43, 75, -22, 51, -65, -47, -51, -68, -72, 67, -34, -19, 66, 4, -37, -4, 25, -12, -66, -12, 108, -39, 30, 46, 44, 86, 106, 9, 51, 13, 55, -62, 89, -90, 45, -30, -11, -55, -8, 15, 21, -80, -47, -48, -47, -2, 8, -30, -29, -5, -23, -20, 79, 65, -5, -88, -53, 12, -69, -42, 51, -1, 19, -92, -88, 35, 30, 35, 53, 93, -9, -13, -3, -61, 73, 79, 75, -71, 77, 90, 0, -52, -29, 97, 78, 2, -21, -89, -43, 96, -39, 8, 70, 54, 30, -43, -87, 18, -22, -32, -60, -38, 9, 1, 38, 60, -23, 32, -42, -58, 64, -3, 32, -41, 33, -2, 72, 97, -24, 19, -12, 20, 17, -12, -6, -51, -14, 98, -52, 30, 38, 82, 70, 72, 104, -36, -24, -78, -74, -8, -16, -58, -42, 63, 100, -51, 90, -54, -4, -35, -11, -58, 64, 97, -27, 89, 43, -54, -55, 86, -57, 18, 58, 54, -40, -70, 33, 32, 15, -5, 63, 5, 45, -4, -85, 36, 42, 45, 12, 36, 28, 35, 73, -26, -19, 94, -32, 75, 53, -51, -19, -71, -19, -52, 78, 51, -16, -12, -6, 47, 97, -28, 52, -48, 40, -23, 50, -81, 106, -35, 68, -1, -3, -75, 79, -62, -13, 3, 16, 87, 52, 31, -40, -14, -25, 84, 66, -47, 53, 9, -78, -92, 84, 58, 29, 94, 87, 45, 32, 14, 90, 82, -84, 27, 14, 6, 57, 43, -90, -58, 35, -16, -74, 78, -52, -17, -64, -94, -22, -22, 77, 97, 35, -1, 65, 7, 49, 90, -89, 40, 0, 25, 87, -4, 76, -78, 47, 82, 49, -68, -1, 58, -5, 60, 41, -84, 70, -10, -13, 23, -13, 64, 21, 0, -30, -80, 17, 57, 86, -59, 31, 75, -64, -30, 35, -35, -67, -64, 16, 12, 20, -41, -68, 36, -51, 9, -43, -22, -62, 12, 48, -49, -59, 24, 14, 86, 74, -5, 66, 18, -9, 6, -53, -55, 35, 72, -60, 48, -14, 25, -14, -55, -82, 42, 96, -43, -23, -97, -42, -20, 40, 69, -54, -23, -45, -49, -70, 77, 32, 75, -45, 12, 20, 18, -72, 67, -5, 27, -34, -27, -81, -27, -51, -57, -38, -27, -18, 25, -59, -82, 62, 70, -73, -71, -23, 6, -56, 62, -83, 8, -72, 59, -39, 12, -31, -1, -25, 92, 73, 92, -9, -89, 40, 12, -54, -39, 36, 3, -20, 6, 48, -43, 16, -9, 44, -93, 40, -26, 23, 23, 12, -36, -45, -37, 61, -84, 73, 46, -92, 25, 3, -62, -38, -57, -21, -19, 75, 105, -50, 36, -55, -1, 90, -49, 23, -11, -2, 23, -40, -32, -37, 12, -89, 53, 85, -4, 31, -50, 79, -54, -1, 100, 103, 49, 30, -20, 77, -65, 77, 111, -40, -44, 34, 23, 96, -20, 49, 65, -45, 84, -6, 0, -8, 15, 6, 4, 85, -1, 30, -48, -87, 65, 70, 21, -42, 63, -33, -40, -77, 81, 90, 113, -10, -14, -78, -51, -59, 5, -85, 16, 56, -88, -4, -59, 39, -93, -49, 100, 64, -94, 64, -48, 38, 14, 107, -2, 75, -68, 3, 67, -59, 13, 21, 10, -26, -47, 87, -6, 96, 62, 42, -60, 110, 72, -45, 10, 72, -83, 15, -42, 74, -65, 17, -74, 77, -57, 93, 36, 10, -60, 18, -73, 97, 23, 63, -50, -22, -46, 29, -75, 67, 14, -72, 87, -6, 90, -64, -26, 91, -65, -88, 89, -36, -69, 59, -24, -26, 67, 76, -79, 51, 6, 55, 67, 76, 64, 93, 68, -89, -80, -41, 19, 71, -85, -32, -22, -40, 7, 20, -80, -14, 40, 99, 45, 52, 40, -25, -59, -10, 24, -49, 66, 28, -46, 6, 74, -4, 20, -22, 77, 8, 57, 44, -90, -44, -74, 54, -61, -37, 86, 47, -81, 87, 29, -52, 32, 33, 9, 55, -30, -5, -40, 83, 86, -15, 73, 75, 29, 99, -17, -53, 56, -33, -101, 18, 22, -77, -89, 7, 56, 47, -24, -5, 27, 17, -82, 75, 106, -20, -42, -51, 10, 87, -73, -9, 69, -25, -37, -61, 54, -35, -22, 14, -92, -44, -25, -40, 65, 46, -49, -92, -6, -84, -39, -58, -90, -43, -38, -83, 9, 55, 66, -74, -79, 55, -40, -61, 15, -56, 67, -55, 73, -58, 69, 75, -20, -35, -30, 19, 33, 92, 101, -61, -13, 78, -32, -55, -7, 96, 53, -38, 94, -1, -46, 98, 93, 3, 11, 74, 78, 68, 9, 58, 76, -34, -70, -8, -78, 98, -13, -22, -79, 19, -34, -96, -18, 72, -29, -43, -21, -66, -65, -57, -50, -14, 70, -11, 89, 85, -11, 33, 18, 94, -18, -3, -89, -1, 84, 70, 22, 33, -31, 2, -45, 75, 49, -78, -25, 73, 56, 54, -52, -19, -20, 71, 48, 53, -73, 47, 84, -32, -10, -86, 109, -15, -58, -65, 15, 55, 33, 73, 65, 83, 25, -19, -59, 35, 3, -26, -3, 24, -44, -30, 72, 52, 29, -32, 86, -31, -83, 55, -85, -36, 8, -95, 49, 105, 8, 53, 31, -86, 71, 80, -4, -53, -14, -17, 43, 12, 80, -62, 69, 89, -85, 92, -93, 59, 2, 27, 30, 3, -79, -14, 27, 75, 113, 24, -41, 7, -5, 85, 88, -97, 7, -58, -13, 66, 1, -93, 53, 8, -36, -58, 34, -19, -67, 3, -50, 67, -80, 33, 23, -1, -19, -55, 17, 58, 106, -16, 101, 6, 39, 24, -54, -60, -13, -70, -18, 78, -17, 85, 23, 114, -82, 102, -49, 56, 70, 94, -57, 48, -78, -71, 84, -1, 32, 7, 25, 109, 21, -99, 48, 13, -75, -60, -54, -85, -29, 3, 83, 30, -66, -90, -20, 54, -49, 62, 51, 79, 50, -62, 84, -8, -3, 62, -10, -76, -78, -72, 13, 46, -11, 49, 101, -16, 76, -38, -24, -55, -102, -24, 27, -58, -7, -69, -41, 123, -62, -74, -24, 85, -66, 35, -58, 11, -11, -55, -78, 17, -43, -13, 52, -46, 63, -96, -62, 117, 39, 110, 51, 19, -82, 23, -50, -41, -27, -101, 20, 63, -121, 4, 13, 76, -27, 14, 15, 35, -27, -97, 11, -45, 87, 19, 12, 27, 119, 21, -64, 39, 24, 48, 78, -62, 42, 10, 72, -82, 9, -28, 74, 91, 66, -73, 5, -55, 71, 17, -36, -60, -41, 67, -50, 28, 82, -60, -35, 48, -67, 45, 94, 18, 53, 46, 66, -85, 49, 7, 4, 81, 52, -67, -51, 14, -3, 34, -92, 12, -40, 102, 85, -22, 81, 3, 52, 69, -17, -38, -73, -2, 87, 57, -70, -49, 26, 16, -40, 47, -70, 85, 35, 22, -68, -4, 8, 88, 78, 31, 5, -50, 78, 43, 17, -24, 80, -64, -22, -88, -70, -31, 41, -86, -35, 19, 78, -80, -86, 57, -56, -15, -50, 108, 72, 31, 94, 3, -66, 78, 62, 32, -8, -28, -6, -64, -30, 93, -69, -60, 39, -47, 99, -68, -50, 29, 9, -91, -8, 80, 56, 6, -16, 63, -64, 34, -28, -27, 77, 74, 57, -79, 33, 60, -14, 59, -12, 74, 21, -111, 30, 97, 47, 88, 54, 14, 54, 17, -51, 27, -29, -63, -31, -76, -65, -61, 87, 48, 36, -27, -64, 99, 15, 85, -45, 2, 80, -36, -55, 45, -57, -73, 71, -46, 2, 11, -17, -17, -86, -74, -78, -94, 70, 108, -41, -35, 4, -65, 9, -43, -65, -42, -63, 10, 4, 80, 37, -55, -26, -32, 60, -36, -52, -13, -90, -42, 62, 78, -56, 9, 80, 20, 68, -51, 94, 55, -64, -9, -25, 67, 69, -68, 91, -59, 86, 14, -39, 69, -79, -79, -82, -27, -33, 66, 6, 54, 49, 10, 53, -13, 68, 72, -2, 46, 50, 28, -58, 41, -9, 65, -23, -29, 14, -44, 28, -19, 59, -42, 5, 86, 92, -88, 60, 65, 83, 36, -52, -12, 56, 81, -3, 57, 34, -45, -95, -57, 73, -17, -28, 104, -79, 5, -44, 56, 2, 125, -48, -49, -17, 33, -86, 3, -91, -52, 47, 51, -91, 12, -89, 18, 15, -51, 2, 104, 30, -51, 23, -91, -52, 76, -6, 9, -30, 56, -91, -110, -56, 106, 34, 55, 35, 45, -11, -49, -79, -66, -77, 16, -20, -5, 72, 100, 71, -43, 94, -55, -104, -8, -47, -34, 122, -31, 9, 36, -93, 113, 24, -75, -96, 105, 71, -38, -7, 10, 21, 106, -51, 66, -79, 75, -14, 85, 33, 39, -9, 58, -47, -54, -14, 94, -6, -3, 48, -28, -9, 65, -47, 42, 4, -62, -91, 29, 23, -8, 86, 1, -105, 15, -99, 49, -49, -74, -67, -15, -60, 58, -6, -26, -29, 20, -72, 27, 77, -8, 41, -5, -11, 51, 4, 27, 92, -17, -24, 69, 66, -46, 71, -44, 77, -65, -4, 4, -7, 44, 74, -42, 28, 122, -3, 30, 21, 29, -98, 110, 87, -84, 4, -66, -16, -59, -34, 94, 49, 29, -5, -67, 106, -65, -12, 65, 17, 48, -35, -28, -86, 58, -87, 54, 64, -47, 44, -15, 27, 36, -63, 0, 91, 62, -43, -22, -81, 74, -28, 68, 91, 45, -9, -1, 40, 33, -31, 83, -84, 52, 18, 4, 17, 80, 8, -13, 94, -8, 89, 37, -86, 94, -60, -43, -45, 94, -50, -47, 0, -45, 91, 93, -41, 29, -93, 88, 40, -7, 20, -46, 35, -48, 34, -81, 48, 55, -5, 59, 9, 69, 40, 61, -78, 28, 19, 36, -27, 9, -58, 21, -60, 29, 82, 93, 88, -64, 84, 43, 84, -50, -40, 34, -41, -67, 91, -27, 64, -1, 13, 53, 38, 18, 10, 9, 59, -27, -13, 65, -68, -41, -66, -17, 86, 23, 15, 58, 28, -78, -41, 29, 31, -75, 27, 20, 49, -21, 60, 51, 78, -28, 42, 60, -87, 89, -4, 9, -68, 26, -87, 90, -47, -67, 68, -86, -30, 85, -33, -41, 50, -44, -74, -31, -55, 50, -90, 39, 74, 98, -14, -29, 17, 29, -80, -79, 65, 77, -1, -6, -36, 73, 44, 67, 6, 8, 91, -48, -62, 53, 50, -33, 72, 95, 70, -36, 17, 91, 87, 16, 86, -15, -71, -34, -63, 72, 67, 84, 26, 26, -1, -40, 52, 29, -30, -74, -35, -76, 32, -72, 85, 82, 33, 30, -6, -41, 11, 76, 70, -22, -93, 4, -30, 101, 10, 17, 36, -64, 75, -88, -74, 86, 8, -49, 83, 4, 74, 27, -46, 63, -55, -69, -75, -7, -72, -40, -47, -55, 92, -95, 11, -43, -19, 87, -83, 11, 37, 38, 68, -25, -65, 93, 50, -28, -23, 90, 25, -82, 43, -58, 37, 39, -15, 55, 8, -44, -50, 15, 23, -104, -83, -47, -67, 51, 26, -50, -72, -51, 84, -5, -81, 69, 90, 7, 52, 7, 5, -34, -84, -33, 79, 65, 36, 49, 67, 25, -79, 56, 51, -23, 82, 36, -20, 112, -30, 31, -76, 1, -89, -49, -62, -58, -5, 103, -101, -15, -70, -57, 54, -99, -71, 38, -89, -14, 28, -35, 79, -25, 27, 70, -95, 75, -37, -90, -34, -52, -24, -5, -50, -53, -15, 90, -37, 66, -108, 111, -71, 54, -36, -48, 27, 76, 30, 69, -78, 19, 38, 48, 60, -36, -52, 27, 38, -56, -64, -89, -117, 67, 5, -103, -70, -95, -1, 82, -38, 33, -116, -59, 39, 105, -60, 126, 93, -62, -33, -1, 41, 14, 59, 25, -5, -76, -45, -16, -66, -18, -61, -18, -46, 50, -24, 7, -48, 20, -69, 34, -101, -66, -89, 24, -19, 24, 61, 22, -38, 63, -117, -18, 20, -53, 90, -48, -9, -35, 65, -63, 77, -56, 15, -5, -10, -20, 95, 42, 89, -20, 65, -35, -97, -49, -63, 17, -87, 73, -85, 43, 13, 50, 0, -81, 51, 17, -50, 25, 2, -73, -17, -28, 7, 64, 63, -113, -124, -49, 63, 51, 34, 60, -15, -59, -49, -79, -58, -23, -71, -5, -23, -1, -62, 56, -13, -34, 63, -61, -1, 84, 49, -61, 107, -15, -94, 21, -21, 38, -117, 122, -13, -108, 0, 59, 43, 8, -17, -68, -15, 29, 67, 13, -59, 27, -61, -2, -57, 80, -87, -29, 16, -77, 91, 4, -71, 24, -75, -60, 79, -27, -26, -17, 114, 13, -13, 14, 9, -12, 33, 57, 35, -3, -6, 7, -81, 106, 80, -76, 50, -85, 73, -30, 50, 55, 24, -32, -22, 106, -85, -33, 66, -63, 57, 90, -10, -39, -13, -5, 37, 9, -100, 23, 10, 49, 22, 72, -41, 32, 64, -57, -5, 55, 40, -48, 59, 16, 6, 70, 3, 67, 34, 10, -40, -94, 2, 19, -19, 78, -82, -101, -23, -60, 69, -80, 66, -20, -2, 78, 90, 104, -59, 55, 68, 93, -86, -6, 68, -89, 25, 46, 33, 4, -66, 89, 62, 27, -23, 44, -45, 48, 11, -1, 91, -63, 37, 43, -15, 17, 64, -38, 39, 88, 13, -59, 9, 67, -16, -83, 55, 63, -76, -74, 48, -60, 4, 11, -13, -59, 21, 24, 3, -26, 9, -63, 62, -78, 15, -18, -40, -42, 81, 22, -64, 59, 78, 34, -39, 90, -25, -77, -40, -16, 66, -72, 7, -57, -14, 101, 93, 89, 22, 17, -37, -59, 24, 34, 68, 40, -1, -15, 3, -32, 0, -40, -6, -84, 31, 70, -80, -74, -45, -69, 73, -30, 20, -72, -100, 99, -26, 78, 73, 70, 21, 56, 14, -22, -57, 36, 14, 92, -43, -30, -23, -4, -69, 4, -9, 30, -30, -6, 77, -56, 51, 65, -39, -11, 76, 22, 86, 62, 59, -10, -12, 73, 56, 28, 19, 86, 70, -8, -8, -43, -2, -26, 102, -38, -89, 98, 23, -8, 2, -8, -57, -61, -36, 3, -94, 48, 56, -77, -72, 68, -86, -19, -87, -83, -10, -31, 74, 32, 45, 8, -97, 3, 35, -34, 2, 35, -23, -65, 90, 40, 39, 87, 51, 96, -33, 14, -1, 47, -22, -13, -96, 114, 5, 26, 94, -100, -45, -4, 112, -5, 32, 41, -64, 81, 99, 25, -36, -72, 5, 87, -42, 68, -44, 50, -90, 75, 79, 81, 12, 111, 16, -95, 40, 72, -84, -83, -22, 59, -55, -6, 46, -47, 98, 71, 63, -27, -91, -57, -15, 49, 69, 11, 60, 47, 59, 39, -19, 93, 33, -1, 5, -2, 104, -33, -111, 37, -34, -73, 37, 30, 3, 86, 78, -70, -28, -80, -66, 28, 1, -58, -110, -73, -38, 39, 48, 14, 45, -23, -65, 91, -77, -22, 81, -62, 25, 27, 57, 6, -57, 13, 68, -87, -50, 36, 54, 24, -15, -114, -71, 47, 58, 41, -85, 40, -33, -62, -88, 80, 60, -92, 33, -20, -2, -12, -81, 59, 85, -119, -13, -50, 14, -55, -36, -120, -61, 81, 112, -30, -97, -35, -16, 22, -47, -43, 61, 38, 46, 12, 91, 105, 37, 41, -53, 88, 7, 7, 64, 68, 82, -108, 10, -19, 2, -61, -45, -102, -10, 45, -23, -30, 25, -49, -93, -56, -94, -41, -70, -3, -112, 0, 99, 32, -41, 1, -106, 62, 70, 12, -26, -36, -20, -1, -69, -19, -104, -62, -37, -9, 47, -33, -59, -119, -59, -87, -48, -32, -37, 33, -8, 27, 69, 60, 4, -31, 54, -72, -75, -100, -91, -2, 52, 14, 13, -79, -5, 3, -78, 18, 47, -39, 18, 23, -6, 57, -92, -50, -10, -60, 9, -1, -85, -6, 37, 27, 83, 50, 84, 40, -108, 70, 49, 19, 95, -52, 46, -81, 6, 44, 44, -70, 6, 66, -65, 72, 12, 28, 14, 2, -79, -13, -100, 52, -47, 97, -12, 25, 57, 0, -50, -12, -7, 1, 84, 43, 20, 16, 122, -27, 7, 100, 83, 70, 51, 21, -52, -74, 69, -27, -79, 25, 49, -9, 50, 24, -80, 37, -73, -13, 5, -4, 4, 11, 82, 32, -15, 11, -9, -23, -21, 32, 72, -82, -64, 92, -46, 86, -101, 30, 51, -49, -59, 0, -50, -77, 26, 28, 67, -103, 96, -28, -27, -37, -90, 20, -14, -93, -51, 76, 71, 14, 64, 42, -46, -20, 51, 95, -36, -50, 94, -50, 3, 4, -87, 91, -77, -62, -79, 67, -81, -73, -40, 109, -67, 85, -66, -78, -31, 82, 71, -14, -34, 55, 65, -48, -40, -93, -18, -83, -7, -53, -67, 58, 15, 66, -70, 95, 60, -87, -26, -13, 13, 46, -61, -46, -21, 16, -81, -66, 11, 55, 81, -29, 85, -12, 79, 7, 78, 40, -50, -32, 62, 84, 84, -44, -68, 44, -72, -9, 70, -2, 0, -70, -69, 19, 57, 52, -71, -68, -51, 26, 9, -88, 40, -9, -17, -3, 0, 3, -64, 38, 71, 2, -21, 47, 79, 12, -71, -90, -70, -57, 29, -30, 31, -59, 51, 16, -27, 105, -44, 71, -10, 87, 35, -58, 42, -67, -82, 23, -63, -50, -51, 1, -60, 62, 70, -43, -23, 65, 49, -30, 33, -77, 89, 17, 47, -87, 30, 0, -81, -91, -41, -65, 38, -17, -13, 69, -58, 25, -92, 2, 32, 12, -53, 115, -4, -59, -102, 1, -86, -45, -55, -45, 96, -64, -100, -30, -62, 16, 84, 83, 7, 20, 13, 114, -41, 2, 43, -41, -40, 27, 87, 17, -66, -72, 28, -52, -29, -112, -28, -115, -25, 76, 3, 34, 17, 73, 2, 19, -66, 14, -7, 15, 56, 28, 31, 47, -28, 29, -24, 43, 81, -2, 9, 113, -75, -66, -60, -41, -76, -57, 27, -13, 32, 4, 53, -114, 52, -13, -114, 22, -18, -48, -70, -50, -106, 80, -87, 107, -81, -33, -93, -39, 13, 17, 92, -74, -59, 45, -40, 29, 65, -100, -77, -51, -33, 1, -49, -117, 40, 3, -59, -38, 20, 8, 16, -70, 23, 59, -42, 50, -54, 6, -12, 2, -97, -1, -40, -24, 73, -90, -80, -1, 25, -125, 67, 36, -83, 6, -48, -75, -70, -39, -121, -88, 52, -20, 6, 76, -43, 48, 27, 29, -50, 32, -98, -22, -47, -14, 34, 64, 99, -10, -1, 76, 0, 6, 81, -120, -60, 36, -6, -36, 57, 58, 37, 33, -41, -35, -13, -9, 62, 48, 46, 115, 72, 38, 61, -4, -67, -47, -38, -35, 30, -73, -57, 16, -26, 36, 60, 63, -37, 24, 83, 21, 63, -32, 46, -3, 15, -6, -62, 67, 28, 57, 26, -49, 6, -23, -41, 68, -21, -36, -87, -70, -37, -69, 74, -57, 78, 73, 53, 45, -61, -30, -26, -25, -43, 7, -99, 36, -43, -85, -36, 53, 40, 49, -81, 4, 93, -64, 56, -50, -8, 18, 48, -62, 2, -15, 20, 52, 6, 12, 4, -45, -68, 30, 76, 68, 76, -105, -93, 13, 36, -91, -106, -50, -77, -35, 77, 113, 38, 10, 1, 30, -67, 53, 81, -36, -12, -68, 63, 79, -5, 84, 65, -7, 48, -85, -14, -17, 68, 86, 81, 14, -18, 5, -18, 25, 62, 38, -47, 111, -85, -63, 79, 29, 56, 26, -66, -26, 108, -45, -47, -70, -68, 88, -4, 0, -74, 69, 112, -62, -70, 5, 23, -80, -88, -67, -82, 50, 68, 77, 42, 83, 70, -64, 78, -18, -53, 52, 65, -44, -51, -25, 49, -31, -51, -57, -52, 12, -44, 9, -3, 71, -22, 53, 23, -1, -65, -11, -44, -83, -35, -30, -74, 34, 10, 45, 28, -65, 23, 90, 54, -18, -83, 62, -17, -67, 91, -24, 0, -30, 33, -67, -35, -87, 40, -3, -61, 14, 42, 4, -30, -82, 99, -65, 45, -96, 52, -2, -45, -26, -3, 54, -28, 12, 76, -54, -42, 88, -35, 90, -2, 11, -68, -27, -84, -59, -22, -69, -10, 69, 34, 27, -34, 23, 37, -97, -77, -19, -3, 91, -26, 71, -50, 1, -44, -13, 26, -11, -98, 54, -101, -52, -29, 3, 10, -91, 71, 85, -61, -43, -58, 31, 102, -29, -72, 79, 12, -55, -96, 76, -27, 88, -99, -37, 76, -53, -40, 73, 31, -14, 41, 79, 77, -84, -14, -98, 48, 43, -68, -73, 16, -61, -51, -21, 77, 27, -39, -89, -68, -30, 63, -45, 14, -45, -106, -15, 49, -64, -48, -64, 19, -8, -92, -12, 18, 37, -17, -5, 3, -75, 14, 55, -52, 77, 72, -10, 74, 24, 24, -38, -61, -10, -106, -33, -39, -69, -114, 38, 79, 108, 48, 80, 70, 51, -28, -35, -37, 35, 59, -86, 58, 23, -17, -105, -121, 28, 29, -62, 59, -43, -42, 102, -4, 9, 45, 4, -48, -59, 56, 31, 58, 104, 77, -67, 23, 60, -69, 40, -68, 28, -62, -74, -28, -40, 9, -10, 35, -9, 25, -14, -69, 47, -55, -50, -11, -6, -86, -50, 35, 25, -108, -52, -72, 40, -88, 55, 3, 57, -11, -37, -25, 0, 30, 67, 0, -39, 104, 40, -67, 58, -50, -12, 44, 36, 72, -83, 77, 78, 60, 79, -94, 64, -39, 38, -4, 24, 11, 104, -82, -89, -43, 24, 6, -101, 58, -59, -68, -79, 92, 29, 55, -2, 35, 62, -66, -12, -8, -58, 5, -63, 112, 68, -60, -52, -100, 65, -30, -60, -62, -29, 88, -116, -53, 16, -71, -101, -31, -55, -20, -20, -34, 21, 33, 7, -89, -78, -116, -9, -90, 11, -31, 98, -26, -52, 7, -89, -84, -22, -81, 4, -74, 50, 88, -80, 52, 71, 20, -43, -77, -51, -85, -30, -15, -81, -88, -43, -107, -33, 2, -41, -85, -54, -40, 35, 23, 64, 2, 43, -27, -76, -64, 6, 18, 44, 2, -4, -21, -53, 32, -73, 16, -14, -40, -30, 86, -83, 34, -16, 83, 2, -29, 41, 48, -56, 86, 117, 80, 18, -55, -30, -53, 48, -5, 110, 20, 33, -70, -64, -1, -64, 74, 48, 37, 23, -38, -86, -36, -12, -91, -105, -2, 40, 5, -45, -2, 22, -3, -56, -49, 67, 60, -57, 1, -46, 55, 74, 91, -18, -51, -48, 33, -56, 1, -18, -18, -18, -30, -55, -42, -2, -49, 39, -85, -64, -65, -82, 44, 74, 46, -20, -63, 47, 8, -54, -12, -4, 0, 104, -17, 42, -65, 55, -31, 58, 47, 45, -52, -44, 4, -91, -45, -46, -54, 21, -8, 46, -71, -72, 2, -9, -63, -25, 90, -35, -35, -20, 81, -77, -71, -15, -17, -37, 16, 106, 101, -80, -3, 87, -83, 49, -14, 15, -20, -32, 92, -66, 45, -60, 83, -2, -73, 23, 29, 75, 62, -12, 33, 64, -48, 50, 94, 67, 78, 49, 31, -4, 31, -108, 20, 81, -22, 11, -37, -17, -37, -10, -28, 68, -23, 76, -81, 47, 50, 19, 86, -73, -47, -112, 59, 70, -5, -19, 58, 76, -12, 43, 78, 14, 40, -73, 61, 85, 83, 85, 46, -38, 12, -45, 73, -70, 79, 85, 59, -12, -33, 3, -66, 47, 37, 28, 17, -13, 48, 28, -50, 7, 22, -81, -93, 6, -27, -25, 51, 64, -33, 88, -86, -12, 18, 91, 10, 61, -85, -54, 98, 80, 62, -71, -27, 51, -88, 9, -3, -71, -42, -89, 76, 13, -68, 17, -32, -87, -25, 18, 41, -87, 65, 44, -56, 82, -11, -91, 69, -91, -85, 55, -62, 93, -40, 62, -69, 74, -1, 79, 39, -69, -14, 71, 6, 110, -68, -87, -54, -1, -30, 56, -68, -105, 43, -12, -100, 74, -61, -79, -97, -48, -4, 76, -41, 83, 21, 49, 88, 97, -90, -69, 82, -21, -55, -90, 54, 41, -93, -99, -113, -88, 51, 71, 43, -91, -37, 26, 27, 84, 8, 48, 76, 79, 15, 39, -83, -32, 74, -19, -51, -91, -23, 80, -56, -33, -17, 3, 75, 50, -54, -13, -102, -96, 57, 64, 34, 52, -21, -3, -17, 67, -84, -16, -2, -42, 48, -35, -82, 41, 16, -86, -22, -100, 26, 23, 76, 46, -70, -17, 83, 16, -67, -123, -3, -84, 44, 27, 64, 39, -10, -74, -45, 16, -6, -49, -61, 64, 38, -54, -92, -60, -99, -4, -48, -115, -100, -84, 55, 30, -56, -39, 14, -17, -89, -6, -101, 76, -59, -63, 42, 18, -86, -108, -99, 89, 24, -63, 4, 26, -42, 56, 44, 86, 39, 21, 42, -26, -38, -101, 54, 70, 0, 34, -51, 1, 66, 102, -49, -42, 34, 19, -31, -65, -9, 30, 74, 89, 24, -35, -43, 37, -24, 75, 66, 20, -63, 58, 77, -22, -28, -8, -91, -50, -7, -78, 73, -27, -93, 15, 0, 41, -62, -9, 52, 66, 61, 15, -59, 104, 60, -29, 16, 77, 24, 60, -10, 5, 43, 55, 35, 30, -23, -69, -91, 71, -52, 82, -15, 3, 45, 20, -64, -8, -53, 22, -63, 74, -67, 27, 39, -77, -30, -41, -108, 90, 84, -61, 41, 70, 51, -37, -53, 85, -18, 40, -93, -1, 33, -43, -42, -41, -72, -52, -1, 2, -80, 84, -60, -25, 11, -41, -15, -56, 105, -12, -87, -46, 21, -81, -4, 80, -83, -62, 37, 75, -79, 75, -37, 39, -67, 27, 23, 2, -58, 26, 30, 48, 72, 63, 19, 66, 90, -14, 18, 65, 85, 73, 73, 44, 29, -13, -73, -54, -91, 75, -7, 117, -36, 13, 9, -79, 68, -24, -68, 22, -69, 40, -74, 17, -7, -60, 38, 77, -27, 96, -63, -87, 67, 58, -28, 29, -79, 36, 26, 77, 42, 70, -16, 63, -57, -77, 20, 26, 70, 24, -83, 111, -8, -7, -73, 65, 82, -37, 82, 6, -19, -28, 76, -7, 74, -86, -19, -8, -69, -58, -28, -1, -36, -91, -62, -101, 12, -30, -8, 53, -68, 81, 78, 29, -48, -28, -106, -53, 28, -31, 78, 18, -30, 44, 75, -45, -32, -60, 63, 32, 6, -54, 46, -12, -78, 51, 11, -93, 21, 6, -5, 47, 23, 15, 0, -32, 63, -52, 78, -44, 34, 107, 85, -76, -40, 82, -22, -62, 61, 24, 50, 69, 22, 46, -8, 32, -67, -72, -54, 22, 42, 7, 89, 51, 79, -96, -5, -89, -10, 90, -46, -77, 39, 102, -55, -26, 5, 60, -22, 17, -19, 13, -27, -25, 2, -28, 1, 28, 58, 78, -5, -44, 68, 44, 28, 76, -15, -2, -18, 56, 23, 49, -90, 90, 71, -47, 12, -40, -67, -49, 57, -95, 1, 52, 20, -28, 97, 69, -16, -87, 32, 47, 14, -15, 41, -29, 92, 11, 73, 65, -78, 88, 7, 79, -6, 5, 25, 86, -29, 94, 2, -71, -10, -41, 32, -18, -39, -42, -93, 75, 93, 36, -44, 22, -12, 59, 61, -94, -91, 44, 6, 41, 21, -67, -61, -9, -42, 82, 51, 18, 72, 16, 23, -37, 92, 53, -82, 80, 103, 52, -51, 30, -68, 3, -33, 13, -56, 2, -91, 38, -78, 73, -15, -42, -10, 104, 41, 90, -70, -29, 7, 33, 54, -25, 64, 25, 66, -29, 34, 66, 90, 44, -24, -19, -69, 90, 13, -24, 81, 98, 38, 29, -91, 70, 3, -90, -87, -38, 40, -55, -43, -56, -98, -17, -41, 74, 43, -7, -60, 53, -30, 47, 16, 20, -21, 34, -39, 63, 23, -22, 18, -51, -95, 72, -39, 23, 61, 4, -39, -5, -68, 54, 104, -51, -72, 56, 38, 64, -4, 19, 40, -37, -61, 47, -33, -3, -101, 11, -40, 84, 50, 10, -87, -3, 27, 80, 33, 98, -94, 81, 12, 18, 6, -98, 12, 71, 82, 50, -90, -35, -9, -27, 42, -53, 99, -85, -29, -11, -1, 84, -72, -32, -17, 92, 8, 56, 70, -38, -8, 55, 5, 66, -20, 32, 24, -74, -17, -48, 102, -80, 91, -9, 17, 78, -50, -1, -26, -71, 85, 16, -40, 78, 35, 7, -75, 75, -38, 23, 19, 76, -39, 68, -43, -80, -65, 10, -13, 48, 26, -64, 20, 87, -65, -71, 56, -69, 45, 93, -34, 37, 14, -15, 3, -67, -74, -37, 44, 61, -37, -21, -76, -50, -3, -10, -31, -55, -10, -55, 57, 97, 28, -91, 90, -15, 37, -5, 56, -91, -78, 13, 20, 83, 40, 71, -25, -36, 32, 46, 49, 39, 51, 84, -89, -68, 22, 31, -58, -11, -37, -1, -5, -65, -2, -46, -34, -47, -15, 110, 51, -20, -75, 94, 64, -23, 29, -27, -3, 27, -67, 57, -61, 30, -37, -16, 94, 76, -56, 80, 4, 45, 73, -6, -74, -43, -77, 100, -20, -88, -29, 106, -79, -72, 70, 72, -36, -60, -56, -17, -35, 13, 24, 96, -75, -5, -13, 112, 54, -25, -15, -72, -12, 67, 30, -1, 75, -70, -23, -77, 106, 15, 76, 15, 67, 2, 0, 3, 63, -47, -57, -71, 33, 17, -6, 66, 85, -87, 35, -38, 1, 93, 23, 82, -1, 65, -28, 36, 63, -83, -2, -5, 34, 38, 57, -57, -66, 42, 95, -67, 71, 9, -28, -85, 90, 3, -17, -6, -71, 10, 82, 5, 59, -74, -19, -2, 90, 42, -1, -7, 5, -112, -31, 16, 32, -88, 48, -70, 59, -42, -18, -82, -101, -58, 68, -55, 68, -50, -50, 80, 22, 23, 81, -19, -9, -54, 14, -33, 24, -70, 20, 46, -14, 25, -17, 46, 56, 22, -36, -37, 34, 57, -4, 57, 72, 91, -62, -2, -81, -28, 93, 32, -51, 61, 33, -51, 70, -12, 64, -83, 42, -40, 76, -78, -24, 65, -46, 79, 28, -4, -8, -74, -97, -3, 30, -22, -40, -8, -12, -12, -94, 40, 70, -1, -11, -44, 55, 60, 10, -71, 90, -5, 33, 86, -67, 96, 80, 33, 5, -61, 110, -3, -90, 101, -5, 26, -53, -8, -51, 11, 99, 56, 0, 103, 51, 55, -63, -8, 12, 2, 86, -15, -53, -2, 13, 59, -66, 6, -75, 82, 57, 74, -9, 27, -20, 17, 71, -58, -70, -69, 25, -45, 0, 75, -53, -1, 88, -78, -8, -40, -58, 68, 18, 53, 84, -11, -84, 42, -74, -21, -66, -32, 23, 1, -28, -75, -56, -78, 2, -52, 4, 1, 2, 59, 51, 34, 61, 29, -26, 76, 40, 45, 50, 63, -94, -75, -91, -101, 39, -7, 23, 71, 71, 25, 57, -57, 28, -21, -59, -98, 18, 6, -49, 72, 77, 65, 52, -24, 53, 52, -46, -96, 34, 91, -20, -38, -66, -67, -16, 12, -82, 5, -41, 51, -75, -25, -84, -63, 74, -72, -17, -3, 89, -65, -48, 52, 54, 1, 71, 61, 25, -76, -41, -28, -56, -27, -101, 45, -65, -46, 16, -28, 9, -64, -65, 25, 77, 21, -58, -50, -36, 42, -12, -38, -5, 68, -70, -79, 89, -39, -49, 72, -87, -26, 35, -65, 86, -36, 88, -41, -94, -10, -38, -29, -69, -65, -88, -60, -15, 15, 39, -66, 86, 61, -63, -28, 57, 56, -103, -20, 6, -78, 22, 19, -49, 98, 44, 48, -98, 84, 10, 73, -87, 88, -34, -92, -80, -9, 0, 26, 6, -63, 39, 80, -16, 7, 46, 104, 70, 60, 51, 88, -36, 19, 64, -80, 42, 53, -93, -61, 72, 51, -2, 67, -59, -60, -19, 32, -21, -45, -13, 89, 5, -71, 52, -5, 84, 46, -61, 99, 77, -83, -26, 68, -45, -92, 28, 78, -42, -17, -26, -74, 12, 77, -60, 109, -66, 45, 92, -10, -35, -35, -50, -31, 87, -86, 111, -81, 79, -21, -14, 43, -27, -16, 40, 113, -15, -76, -83, -12, -43, 101, -81, 63, 1, 18, -69, 119, -29, -46, -93, -59, 89, -9, -75, 29, -39, -76, -27, 57, 70, -56, -20, 101, 27, -92, -85, -69, -48, -82, -15, 26, -51, 63, -55, -59, -59, 78, 61, 72, 33, 45, -12, 9, 81, -42, -7, -58, -27, 40, -33, -44, 49, -75, 50, -33, 14, 49, 24, 41, -28, -44, 77, 43, -91, 53, 16, -63, -51, 5, 69, 9, -3, -63, 4, 75, -37, 38, 6, 52, 65, -18, 75, -65, -15, 4, -27, -69, -34, -77, 20, -41, 0, -66, -12, 96, 47, 80, -42, -81, -37, 82, 12, 48, 23, 83, 55, 90, 56, -95, -50, -44, -70, -102, 37, 50, -71, -29, -89, -62, 37, 104, 28, 20, 10, -47, -41, 90, 10, 6, 25, -66, -2, 43, 2, -71, -43, -44, -65, -83, -24, 98, 3, 62, 84, -13, 15, 2, 72, -54, -73, 78, 41, 82, 39, -107, 75, 60, 40, -80, -80, -66, 65, -36, -41, -80, 97, 47, -15, 5, 58, -37, 113, 24, 47, -55, 83, 47, -93, 71, 22, 51, 49, 48, 18, -54, 42, -4, 82, 100, 96, 69, 74, -8, 99, 88, -71, -59, 72, 75, 75, -30, 2, -41, -91, -74, -23, -25, -73, 6, 57, 43, 93, -42, -6, 29, -93, -95, 92, 57, -59, 12, 66, 21, -89, -74, 9, -82, -78, 76, -4, 7, 21, 81, 40, 25, -74, -28, 23, -18, 81, 11, -13, -31, -7, 86, 34, 42, -28, 20, 98, 51, 46, -9, -65, -53, -19, -77, 54, 28, 83, -49, -61, 83, -15, 114, 79, 11, 47, 34, 20, 24, -3, 16, -85, -41, -51, 35, -54, -51, -63, -82, -71, -79, 88, 82, 15, 6, -94, -22, -84, 32, -4, -18, 0, 95, 42, 35, -6, -18, -5, -76, 63, -20, 22, -51, -90, -27, 4, -70, 61, -26, -6, 43, -5, -31, -97, 33, -26, -11, -86, -57, -50, -20, 50, -58, -35, -1, -4, 106, 70, -15, -73, 62, -12, -2, -27, -68, 72, 50, -90, -39, -34, 3, -59, 82, -19, 73, -45, 14, 11, 36, 11, 52, -16, 82, -80, 51, -80, 90, -46, 5, -80, -57, 38, 24, -76, 4, 25, 92, 38, -53, 106, 20, -46, -13, 0, 54, 45, 7, 88, -13, 12, 44, -50, 43, -77, -102, -52, 103, 29, 46, -16, -50, -43, -83, -43, 59, -30, -52, -55, 111, -30, -69, -32, -76, 82, -5, -18, 39, -70, 76, -16, 62, 22, -97, -82, -33, 85, 62, 52, 18, 12, -34, -77, 40, 15, -5, 33, 94, -1, -48, 82, 21, 48, -88, 100, -13, -68, -10, -56, -8, -68, -39, -64, 27, 2, -37, -7, 33, -45, -19, 90, 66, -75, 94, 77, 116, 21, -23, 62, 17, 0, 50, 70, -64, 55, -84, 97, 85, 10, -6, 51, -5, -1, -48, -53, 1, -74, -55, 58, -3, 101, -54, -74, 102, 49, 127, 54, 32, -95, 49, -54, -54, -11, -60, 12, -61, 35, 67, 50, 63, -26, -23, -47, 91, 45, -80, -42, -46, -25, -63, -87, 0, -37, -73, -85, 115, 85, 82, -74, 120, -54, 49, 88, -76, 3, 73, 57, 52, 43, -9, -46, -42, 0, 106, 5, -54, 65, -38, 26, 39, -86, 46, 12, 4, -44, 78, -37, 19, 96, 40, -35, 30, 64, 81, -64, 2, -19, 114, -6, 32, 17, 29, -80, -75, -66, -10, -11, 42, -70, -12, -61, -30, -61, -25, -94, 58, 2, -83, 52, -33, -63, -51, 11, 88, -11, -57, -49, 47, 89, -13, 57, -45, 90, -20, 50, 74, -35, -22, -4, -1, -67, -57, 8, -27, 34, 62, -66, 3, -51, -7, 15, 12, 92, -18, 94, -77, -14, -82, 13, 1, 2, 87, 12, 48, -61, -86, -17, -79, -31, 44, -54, 55, 15, -22, -78, -50, 4, 2, 0, -18, -58, 88, -39, -60, 62, -27, 68, -67, 78, 20, -69, -88, 41, -43, 70, 25, 84, 79, 76, 84, -83, 19, 85, 93, 64, -31, 23, -75, 101, -40, 98, -15, 30, 22, -8, 15, -21, 99, 101, -21, 15, 95, -46, 8, 47, -10, 33, 61, -40, -63, -32, -11, -29, -8, -89, -77, 11, -44, 87, 86, 74, -38, 8, 103, 73, -78, 54, 12, 47, 71, -84, 64, 50, -51, -46, 20, 6, -79, -56, 7, 10, -69, 102, -15, 10, 109, -77, -4, 59, 29, 67, 80, -71, -36, -87, -26, -82, -13, 53, 48, -41, -8, -57, -67, 37, 4, -63, 54, -87, 85, 4, -35, -22, 95, -83, 23, -79, 47, -38, -54, -80, -21, 66, 23, 86, 86, -92, -47, 97, -100, 88, 73, 93, 95, -105, 12, -30, -80, -50, 76, -42, -8, -68, -64, -48, 14, -11, 20, -24, 17, 90, -17, 71, 11, -79, 12, 43, 7, -69, -82, 75, 4, 92, 89, 78, 58, 84, 49, -48, -8, 58, -29, 50, 59, 30, 123, -84, 65, 45, -30, 35, -90, -15, -63, 0, -50, -75, -61, -7, -33, 2, 13, -9, 83, 73, -30, 92, 30, -8, 43, 3, -16, 57, 18, 87, 16, -11, -63, -67, 45, 36, -33, -76, 19, -60, 53, 37, -12, -13, -95, 86, -37, 30, 49, 113, 86, -48, -8, 67, 8, -50, 11, -26, -62, -82, -12, -16, -74, -33, 22, -97, 91, 28, -45, 74, 89, 35, -22, -86, 25, 75, 13, -2, 81, 18, 35, 33, -103, -56, -47, 1, 31, -82, 3, 75, 56, 16, -55, -70, -48, 7, 13, -55, 60, -58, 59, 76, -63, 16, -49, 94, -46, -15, 4, -15, 90, -90, 81, 31, 33, 80, -27, 48, -54, -15, 23, 14, 51, 45, 68, -53, 38, 4, 78, 38, -21, 105, -30, -47, 41, -6, 9, 72, 78, 76, 19, 91, -34, 45, 63, 56, -45, 18, 71, -13, 51, 27, 79, 47, -101, 0, 21, 85, -53, 49, 68, -5, 18, 26, -6, -84, 48, 62, -48, -81, -69, 97, -66, -30, -72, 44, -13, -40, -87, -64, -31, 22, -61, 59, -35, -85, 26, 7, -15, 9, 21, -89, -48, 93, -73, 46, 39, 35, 50, -68, -86, 28, -57, 24, 42, 35, -2, 75, -69, 64, -64, 78, 77, -75, 110, -68, 43, 88, -12, -35, -78, 78, -64, 2, 92, 33, -39, -58, -34, 24, 38, 87, -42, 56, 41, 58, -35, -67, 77, 73, 50, 8, -78, -85, -26, -15, 7, 42, 65, 89, 7, 50, 75, -42, -4, 70, -55, 16, 44, -60, 61, 94, 76, 8, -40, 32, -41, 89, 37, -47, -82, 32, -29, -90, -65, 35, -59, 68, -66, 85, -73, -90, 44, 77, -85, 4, 59, 92, 23, -59, 73, 17, -74, 24, 64, -27, -36, 81, -5, 59, 59, -48, -94, -59, -40, 11, 5, -13, 55, -33, -13, -20, -44, -4, -39, -75, 69, 55, 92, 89, -78, 0, 57, 60, -22, 43, 101, 51, 10, 1, 94, 47, -28, -44, -90, -14, 79, -21, -51, -31, -80, -17, -71, 42, -30, 77, -62, -66, -29, 30, -47, -81, 94, 63, 95, 56, -42, -68, 79, 63, -69, -6, -21, 99, -5, 51, 29, -57, 36, 98, -36, -88, -13, 96, -55, -14, -92, -28, 69, -48, 80, -30, 45, -28, 35, 44, 42, 16, -40, 90, 17, -98, 3, -7, -78, 52, -51, 37, -50, -34, 56, 24, -18, 96, 69, 89, -71, 28, -65, -35, -9, 66, 43, -54, -31, -50, 77, 35, 33, -47, -63, 85, 58, 59, 65, -76, 18, 108, 59, 75, -59, 36, -39, -22, 64, 32, 96, -17, -68, -10, -22, 65, 67, 2, 105, 19, -78, 13, -33, 69, 69, 81, 7, -38, 87, -52, -48, 58, -69, -42, -4, -26, 27, -61, -79, 61, 53, -13, 56, -48, 25, -32, 48, -55, 2, 92, 88, -24, -73, -58, -7, -97, -25, -38, -102, -16, -83, -73, -5, 0, 45, -60, 73, -31, 6, 45, 81, -51, 9, 75, 8, 67, -68, -32, -13, 65, -61, -5, -4, -24, 57, 72, 0, -104, 63, 31, -21, 56, -77, -103, -4, 87, -58, -2, 0, -34, 11, -68, 16, -12, -19, 13, 59, -69, 71, 39, -48, -58, 87, 71, 6, -34, -15, -59, -33, -36, -61, -22, -1, 44, 64, 37, -29, -13, 57, -1, -82, -77, 81, 36, 100, 37, -25, 33, 14, -40, 113, 58, 30, 69, -14, 64, -70, 8, -53, -89, 92, 106, 71, 51, 61, -32, -32, 36, -16, 24, -91, 89, -57, 92, 61, 58, 3, -8, -31, -54, 80, 103, -26, 36, 43, 14, 3, 62, -39, -31, 94, 90, 78, -75, 31, 77, 93, -17, 9, 58, 33, 64, 80, 112, -43, -16, -95, 7, -18, -61, 31, -45, -25, 41, -2, 68, -17, -7, 99, 93, -70, 92, -12, 53, -3, -54, -72, -51, 49, 97, -32, 14, -23, -37, 77, 52, 22, -80, 20, 44, 36, -41, 39, 43, 16, -64, 123, -37, 46, 73, -87, 80, -88, 100, 79, 67, 24, 29, -16, -20, 21, -19, -53, 65, -11, -7, 65, 106, 89, 27, 33, 18, -2, 0, 33, -82, -31, -80, 84, 36, 34, -37, -28, 22, 9, 23, -64, 39, -51, 108, 21, -42, 118, 57, -44, 40, 67, -67, -31, 98, -2, 44, 39, 76, 52, 6, 69, 5, -29, 49, 123, -76, 0, -64, -10, 44, 80, -56, 47, -37, -59, 8, 95, 94, -51, -7, 36, 79, 36, 15, -73, -23, 4, 48, -67, -41, -24, 55, -89, 9, -84, 87, 104, -61, -52, -21, -23, 12, 88, -40, -69, -31, -30, 27, -16, 72, 6, 79, 72, 53, 16, 40, -94, -46, 65, 6, 65, 39, 73, -63, -54, -10, -29, -38, 34, -52, -70, -18, 100, -43, -63, 57, -46, -49, 76, 33, 31, -83, 23, 77, -70, -58, 15, -2, 15, 58, 87, -93, 28, 57, 50, 91, -77, 0, -100, -40, 12, -85, -66, 59, 53, 102, 5, 0, -50, 89, 38, 7, 83, -9, 64, -77, 8, 34, 29, 38, -52, -48, -65, 22, 2, 59, 83, -77, 95, -92, -43, 3, -4, 83, 48, -48, -60, 66, 42, 27, -24, -29, -81, -15, 59, 19, 6, -72, -1, 87, -59, 85, 54, 52, 56, 92, 47, -9, 2, 106, -9, -73, -25, 78, -71, -21, 21, -94, 86, -2, 85, -65, -76, 32, -16, 63, -54, 75, 58, 60, 39, -29, -65, -61, 55, -12, 70, -78, -34, -22, -77, -7, 87, 100, 96, -7, -17, -3, -9, 12, 85, -34, 81, -81, 23, 85, 38, 24, 103, 46, 33, 64, 32, -20, -36, 59, -2, 25, -5, 51, 6, -85, 10, 68, 14, 96, -50, -49, 56, 61, -77, 70, 12, 29, -99, 40, -43, 6, -92, -77, -58, 46, 31, 82, 83, -38, -59, 105, 4, -43, 81, 19, 73, 94, 12, 7, -58, 85, 60, 32, -108, 81, -33, 47, 50, 61, 56, -58, -38, -25, -87, -78, 34, -42, 21, -17, -39, -28, 6, -62, 58, -51, -79, -1, 61, -53, -30, 93, -56, 2, -49, 6, -72, -58, -45, 5, -30, 57, 47, 39, 36, 81, 66, 1, -72, 40, 21, -18, 15, -34, 26, 67, -73, 84, -5, -37, 89, 24, 3, 29, 47, 46, -63, 74, -73, -18, 33, 78, -47, 104, 41, -97, 30, -18, 85, -51, 40, 70, 54, 38, 76, -72, 49, 52, 10, -70, 87, -59, 45, -8, -34, -51, 25, -73, 31, 6, 0, -6, 47, 55, 5, 56, -4, -11, -51, -69, 58, 69, 28, -83, 26, 78, 41, 87, 64, -74, 24, 81, 37, 14, -34, 103, -29, -69, 11, -87, -17, 32, 39, -90, 28, 26, -18, 29, -21, 31, -37, -9, -18, -52, -10, 104, -105, -12, 17, -8, 29, 105, 65, 62, 90, 43, -53, -63, -38, 86, -74, -30, -45, 15, 78, -96, 29, 59, 21, 19, -12, 4, -16, -67, 25, -68, -51, 107, 60, 15, 5, 7, -6, -33, -66, 26, -45, 8, -43, -4, 26, 90, 16, -52, -59, -61, 6, 6, -7, 55, -48, 79, 48, 91, -54, 54, 3, -59, -62, -47, 39, 87, 32, -3, 86, 98, -5, 114, -67, -80, 94, -39, 85, -47, 52, -47, -37, -5, 54, 93, -34, 80, 61, -64, 59, -57, 30, 26, -86, 2, -84, 74, -27, 71, -74, 9, 59, -78, -73, -46, 19, 27, -42, -86, 87, 88, 34, 73, 62, 55, -29, 27, 84, 63, -39, 3, 49, -8, 74, 3, -30, 31, -22, 47, 86, 0, -74, 49, -40, -41, 88, 108, 22, 1, 18, 83, 23, -39, -86, -12, 40, 60, 47, 94, 34, 81, 38, 28, 23, -22, -16, -25, -62, -90, 0, 73, -38, 83, -89, 18, 72, -57, 56, -11, -64, 31, 70, -2, 90, -38, 4, 31, 11, 43, -11, -43, 58, -94, -31, 16, -11, 80, 69, -9, -28, -49, 29, 17, 80, 27, -81, 90, 72, -72, 56, 20, 26, -71, 49, -14, 98, 7, -36, 45, -32, -2, 30, -77, -114, 44, 72, 76, -35, -28, -42, -32, -52, -8, 13, -46, -72, -32, 37, -10, -50, 74, 12, 56, -20, -15, 9, 89, 25, 34, -63, 52, 7, 69, -34, 44, -47, -72, 52, -53, -29, 73, 70, -92, 34, -65, -60, 41, -100, 81, -13, 77, 54, -60, -79, -31, 48, -32, -58, -2, -39, 33, -34, -17, -61, 64, -98, -105, 14, -40, 57, -48, -4, 50, 76, 0, -16, 68, 87, 47, -72, -73, -9, 45, 97, -60, 92, -66, -33, 41, 15, 66, -87, 76, 62, -9, 17, 20, 8, -40, -98, -77, -54, -14, -60, 47, -58, 75, -69, -80, -67, 47, -80, 33, -5, 47, -1, 43, -46, 72, -78, 29, 92, -91, -52, 96, 29, 62, 64, 9, -71, -37, -104, 65, -66, 26, 31, -26, 16, 14, 25, -17, -56, -10, 38, -6, -8, 91, 60, -34, 5, -27, 82, -81, 26, -67, -36, 69, 67, -8, -29, -30, -18, -57, -91, -69, 8, -46, -78, 46, 5, 25, 28, -41, 14, -26, 33, -4, -33, -23, -37, 15, 9, -62, 71, -10, -72, 15, -24, -50, -64, -18, -16, -16, -20, 12, 17, 69, 105, -31, 34, 75, -52, 4, 49, -74, -65, -69, -68, 51, 12, -50, -45, -36, 27, 74, 29, -68, 63, -31, 52, 17, 62, -75, 78, 12, 9, 31, -13, -82, 7, 17, -83, 77, -78, 24, -71, 77, -5, 86, -81, 85, 26, 71, -77, 87, 68, -39, 61, 19, -31, 39, -71, 42, -26, 100, -65, -34, 31, 2, -54, -10, -25, -80, 22, -32, 24, 3, 34, -49, -44, 45, -12, -35, 91, 30, 26, 57, 10, -20, -60, 68, 91, 23, -65, -36, 6, 94, 16, 47, 46, 60, -10, -86, -38, 69, 97, 36, 53, 58, 27, -78, 46, 39, -43, -81, 11, -49, 98, -73, -87, -74, -64, 81, -99, -53, 14, -24, 57, 94, 29, -20, -95, -45, 85, 58, 75, 34, 61, 54, -20, 27, 17, -25, 7, -80, 22, -11, 109, -29, 45, 38, -87, -20, 92, -18, 58, 101, -26, 90, 50, -71, 30, 64, -90, 40, 38, 9, 41, 50, -36, 75, 86, -7, -69, -95, -81, -73, -86, 17, -36, 27, 102, -72, -19, -80, -47, 109, 26, 89, 49, 42, 64, 19, 15, 44, 41, -37, -43, 13, -79, 29, -81, -32, 40, 8, 75, -86, 13, -33, -106, -84, 91, 16, -9, 6, 58, 68, -26, 77, 41, -28, -43, 103, 64, -74, 39, 28, -47, 31, 70, -90, 63, 20, 50, 2, 32, -55, -60, -14, -85, 62, 71, 26, 29, 54, -58, -10, 89, -59, 65, -60, 17, -30, -67, -48, 5, 96, -3, -84, 74, 38, 61, -8, 37, 74, -40, 49, -52, -60, 58, -83, 67, -30, -116, -19, 9, -87, 33, -54, 75, -25, 54, 105, 80, 33, 38, -31, -53, 29, -82, -37, 32, 42, -42, 65, -68, -68, -4, -51, 9, -91, -35, 63, -48, 7, 54, -24, 40, -88, -58, 21, 99, -26, 42, 67, -24, 100, 100, -28, -8, -45, -22, -18, -48, 85, -16, -60, -13, 
  50, 35, -7, -58, -88, 4, 32, -73, -5, -26, -42, 50, 20, 38, -14, 49, 59, 83, -53, 36, 47, -32, 13, -42, 18, -15, 89, 91, -18, -80, 59, -61, 71, 46, -43, -73, 79, -97, -70, 15, 11, -46, -72, -45, -64, -74, -43, 51, 10, 5, -30, -7, 10, -2, -40, -31, -31, -21, -64, -33, 44, 70, -40, 15, 58, 55, 16, 17, 69, 11, 66, 30, -17, 38, 9, 72, 27, 61, -67, -86, -52, 16, -19, -37, 50, 30, -20, 60, 84, 1, -50, 32, -34, 78, -56, -3, -74, -29, 51, 90, -69, -62, -83, -55, -39, -53, -107, 17, -39, -30, -47, 77, -71, -33, 67, 66, 41, 21, 43, 35, -36, 47, -78, -82, 25, -4, -47, -96, -72, 48, -47, 0, -64, -8, -13, -92, -72, -77, -67, 20, 80, -68, 53, 10, -58, 38, 93, 26, -52, 5, -19, -42, -42, 12, -49, 8, -90, -6, -29, 90, 5, 59, -21, 24, 51, -34, 93, -52, -88, 34, -105, 60, 48, -73, 53, -21, 73, -53, 10, 48, -48, 72, 58, -31, 8, 33, 23, -93, -54, 24, -39, 91, -22, -42, -28, -31, 94, -63, -31, 76, -53, -56, 25, 44, -32, 2, 28, -46, 94, -80, -81, -6, -16, -77, -90, -22, -23, 92, -24, 16, -21, 24, -34, 86, -65, 55, -6, 91, 8, -7, 82, -55, 82, 4, 11, 45, 90, -66, 72, -71, -13, 28, 56, 91, 0, -40, 42, 85, -57, -67, 77, 94, 71, -9, -61, -87, 68, -56, -81, -30, -91, -77, -25, 56, 17, 20, -57, 56, -77, -72, 35, 23, -5, 97, -27, -17, 69, -89, -74, -89, 62, 83, 7, 5, -24, 10, -35, -82, 33, -36, 58, -59, -65, -24, -73, -13, -11, -82, 46, -79, -12, -99, -39, 46, 14, 67, -77, -85, 76, -75, -38, -75, 24, 46, -24, 51, -90, -96, -84, 91, 17, 77, -81, 108, 41, 35, 48, -5, 13, 101, -65, -64, -67, -78, 13, 2, 11, -65, 84, -90, -60, -41, -9, 84, -8, -20, 11, 52, -95, -80, 35, -1, -19, 50, 86, 42, 88, 87, -1, -10, -74, 4, -83, -63, 63, 21, 25, 51, -45, -46, 60, 70, -43, -55, -100, -38, 65, 12, -74, -13, -64, 54, 63, 25, -12, 71, -47, -5, -9, -48, 9, -85, -32, -17, -13, -86, 62, -60, 91, -63, -92, -47, 67, -78, 106, -92, 46, -4, 70, 102, -38, 64, 32, 66, -5, -9, -74, -78, -56, 26, -60, -60, 30, 51, 16, 83, 47, -23, 7, -6, 18, -64, -36, 62, 28, -36, 39, -48, -64, 88, 28, -51, -70, -2, 18, -22, -94, -24, -40, 48, -38, 23, -44, -34, -69, -31, -73, -8, 61, -98, 27, -43, -27, -77, 21, 27, 24, 94, 43, 87, -43, 11, 101, 57, -92, -4, -10, 101, 11, 57, -17, -65, 31, -47, -57, -16, -45, 5, -44, 31, -41, -1, 15, -10, 6, 26, -56, -16, -61, -52, 81, 3, 19, -53, 6, -56, 36, 53, 14, -33, 79, 5, -11, 83, -56, -10, -22, 62, -87, 77, -78, 51, 10, -63, 20, -2, -79, -45, -18, -82, -3, 38, 13, -45, -24, 71, -54, -33, 73, -103, 86, 21, 93, 71, -76, 20, -36, -96, 43, -49, 26, 58, -13, 71, -12, -54, -40, -6, -63, 80, 40, 56, 67, -58, 3, 44, 49, 77, -6, 84, -59, 68, 17, -34, -87, -79, -51, 12, -3, -44, -26, -8, -53, -12, -4, -84, -67, -107, 26, 37, 69, 13, -55, 54, -42, -18, -93, 15, -25, -65, 77, 64, 54, 68, -47, 13, -49, 6, 35, -11, 52, -57, 61, -55, 17, -84, -18, -14, -95, 38, -98, -70, -102, -24, -71, 55, -26, 1, 66, -10, -21, 66, -56, -47, -8, -16, -59, 16, -18, 46, 55, -82, 60, -78, -18, -60, 9, -76, 60, 47, -62, -77, 47, -36, 11, -62, -8, -24, 71, 68, 35, 7, 6, 4, -35, 76, 3, -1, 90, -46, 57, 88, -79, 79, -3, -79, 71, -23, -97, 74, 7, -44, -43, -58, 48, -63, -50, -10, 72, -26, 42, -70, -69, -101, 30, -22, -59, -57, -53, 13, -36, -87, 59, -52, -91, 23, 43, 22, 58, -9, -61, 8, 4, 76, -65, -101, -16, -73, 81, -39, -54, -20, -107, 8, 73, 28, 82, 26, 55, -17, -28, 65, 25, -90, 33, 7, 89, 3, -39, -106, 45, -6, 14, 82, -73, -24, -28, -97, -88, -28, 47, -91, 59, 68, 4, -64, 47, -55, -79, -69, 81, 23, 64, -31, -18, -95, 73, 85, 6, -55, 25, -114, 21, 65, -48, 33, -96, -91, 27, -33, 76, -16, -41, 26, 13, 33, -71, 27, 97, 58, -1, 38, 96, 32, -67, -5, 24, -36, -60, -63, -53, 58, -58, -39, -23, -45, -34, -55, 18, -118, 42, -45, -83, -40, -28, -19, 61, 85, 1, -87, -90, -90, -7, 3, 81, 48, 36, -82, -1, -109, -6, 63, 7, -85, -55, -66, -39, -2, -96, -52, -15, 43, 83, 53, 23, 48, 54, -1, -97, 45, -19, 22, -17, -76, -80, -87, 12, 8, -89, 55, 84, 54, 18, 44, 56, 95, 38, -29, -64, -86, -68, 80, 21, -100, -59, -33, 49, 89, -38, -117, 53, 49, -8, -39, 86, -92, -83, 60, 72, 20, -90, -1, -58, -67, -42, 34, -85, -32, 62, 2, 90, -88, 20, -58, 46, -35, 31, 64, 69, 94, -12, -63, -94, 5, 2, -90, 36, 41, 83, 6, -25, -57, 4, 72, 62, -33, 19, 48, -27, -15, -62, -41, 58, 34, -23, 28, 12, -41, 37, 32, -77, -15, -11, -98, -13, 1, -52, 69, 31, -22, 7, -13, 93, 41, -78, 27, -69, -112, 49, 103, 48, 81, -33, 48, -33, 61, 10, 24, -54, 44, -22, -69, 44, 47, -68, -42, 52, -10, 72, 77, 70, 0, 30, -31, -55, -58, -79, 39, 93, 17, 54, -73, 94, -71, 78, -83, 71, -4, 59, -39, 67, -45, -79, 19, -13, 48, 1, 25, 40, -93, -63, -46, -81, 11, -75, -85, 18, 32, -41, -97, -89, 4, 72, -68, 78, -69, 42, 83, 56, -27, -68, -69, -77, 51, 34, -46, 73, 51, -10, -43, 10, -75, 77, 25, 36, -11, 31, -77, 89, -100, -99, -83, 49, -92, -70, 16, 14, -70, 88, 11, 77, -1, 56, 32, 15, 8, 67, 73, -65, -57, -85, -49, -42, -2, -41, 29, -49, -67, 49, 29, -79, -95, -80, 68, -18, -114, -94, -98, -19, -73, -53, -76, -74, 78, 71, -52, 65, -30, 21, -87, 14, 49, -15, -28, -66, -74, 18, 70, -29, 22, -52, -31, 8, -86, 37, -8, 1, 32, 66, -52, -7, -53, -39, -106, -49, -70, 44, 64, -81, 56, -82, -25, 86, 45, 92, 56, -68, 55, -25, -16, -19, 12, 65, 71, -85, -14, -81, -39, 6, 32, -44, -73, -45, -22, -78, -12, 49, -98, -50, -52, 59, -105, 91, 51, -28, 45, 4, 75, 89, -82, 48, 81, -66, -62, -30, 2, -72, 71, 88, 78, 80, 17, 21, 71, 99, -75, 31, -101, 51, -52, -73, -33, 98, -119, 52, 59, -70, 15, -45, -18, 28, -20, 59, -8, 2, -57, 0, 22, -18, 62, 23, -49, -91, -102, -32, 74, 90, -47, 49, 52, -80, 34, 52, 67, -66, 67, 3, -56, -42, -57, -57, -85, 22, 51, -69, 83, -78, -100, 95, -13, -75, -52, -70, -41, 49, -56, 13, -18, 103, 55, 33, -114, -10, -109, -70, 17, 16, -117, -65, -31, 67, -65, 53, 66, -47, -70, -55, -37, 25, 57, -46, 74, 9, -33, -1, -8, -3, -45, 84, -88, 57, -8, -85, -42, 19, -27, 3, -23, 42, -95, -62, -70, -64, 95, 74, -83, -88, -41, 47, -80, -11, -7, 20, 55, 26, -78, -7, -108, -85, -22, 91, -60, -60, 26, 61, -73, -29, -46, -16, 84, -25, -115, -19, 47, 0, 49, 101, -111, -117, -77, -27, -36, 43, 53, -52, -42, -10, 1, 55, 46, -2, -124, -32, -73, 58, -14, 20, 61, 0, 14, 66, -18, -18, -33, 84, -31, -59, 77, 69, -101, -32, -24, -8, 36, 97, -44, 100, -52, 32, -2, 104, -89, -79, -42, -38, -44, 87, -34, 27, -40, -56, 13, -119, -69, -32, -12, -17, 58, -49, -17, -16, -51, -30, -73, 92, 93, 25, 33, -6, 28, 1, -29, 46, -10, 87, -108, -17, 79, -19, 42, 6, 42, 10, 3, -85, -15, -60, -42, 28, 9, 52, 58, 81, -47, -7, 2, 79, -60, -2, 83, 17, 101, 2, -80, 65, 15, -47, 2, -41, 47, 31, -68, -33, 53, -51, -38, 39, 86, -54, -20, -53, 29, -4, -9, 67, -8, 64, 61, -78, -39, 100, -46, -56, 2, 0, -2, 93, -76, -75, 30, -30, -31, -25, 92, 78, -34, 15, -51, -84, -20, -80, -46, 88, 61, 24, 42, -74, -57, 64, 75, -64, -8, 18, 88, -80, -19, -58, 51, -52, -6, 3, -114, -47, -34, 63, 33, 49, -97, -51, 74, 36, 53, -4, 90, 87, 87, 14, -55, 44, -32, 13, -29, 78, -43, -8, 92, 23, -67, 38, 85, -52, -21, 19, 46, -47, -74, -21, -41, -8, 56, -48, -95, -67, -32, -22, -59, -72, 63, 83, 48, -56, -79, 81, 78, 58, 70, 49, -48, -77, 50, -12, -96, -64, 64, 74, 50, -51, 34, 11, 11, 13, -7, 14, 19, 4, 31, -10, 36, -78, 94, -5, 58, 9, 24, 51, 55, -52, -60, 88, -51, -88, -36, 5, -67, -4, -56, -82, 29, 29, 70, -59, 65, 88, 55, 81, 6, -108, -46, 51, -67, -52, -38, 84, -7, -69, -106, 63, 87, -80, 11, 31, -14, 70, 55, -75, -47, 13, 78, -21, 57, 42, 67, -63, 67, -31, -54, -81, -6, -108, -69, 22, 15, -61, -40, -49, 102, -51, -50, -63, -60, 36, 23, -56, 62, -74, 73, -1, -105, 49, -59, 70, -81, -89, 15, -12, -25, -79, -97, 67, -85, -93, -8, -97, -98, -73, -16, -24, 37, 69, -41, -104, 47, 30, 4, -24, -103, 39, -26, 39, -53, -61, 0, 17, -107, -25, 46, 48, 46, -20, 0, 51, 10, 44, -62, -78, 7, -58, -99, -32, 102, 97, -56, 53, 23, 56, 58, 64, -101, -3, -10, 58, 82, -11, 2, -29, 57, 69, 41, -18, 6, 77, 82, 3, -39, 64, -7, -50, -80, -101, -80, -35, 31, -57, 10, 47, -67, -25, -72, -86, -97, 31, 28, 0, 87, 115, 14, 51, -79, -62, 72, 58, 72, 24, -81, 2, -97, 1, 27, 17, -1, -25, 27, 33, -67, -41, 53, 72, 16, -8, -11, 84, 55, 115, 13, 90, 79, 23, 29, 89, -40, 88, -49, -45, 41, 53, 11, 65, 54, -59, 45, -27, -28, 63, -31, 12, 37, -55, -37, -97, -57, -57, -59, 19, -95, 67, 53, -23, -11, -60, 10, 8, -24, -24, 74, -52, -80, 26, 8, 60, 1, -67, -44, 3, -40, 81, -61, 12, 85, 83, -25, -6, 15, -64, -85, -24, 43, -66, -79, 78, -10, 60, 37, -2, -26, 41, -47, 29, 9, -40, -56, -43, 10, -74, -16, 31, 3, -82, -25, 20, -80, -28, -46, -37, 64, -21, -5, -54, -64, 83, 86, 25, -59, -3, -7, -37, 60, -87, 107, 73, -1, -20, 37, -2, -19, -105, -84, 18, 45, 29, 2, 63, -34, 25, -35, -63, 67, -69, -74, 42, -36, 21, 18, 43, 30, 74, -3, 88, -39, 10, -42, -15, 41, 54, 60, 4, -15, -73, -23, -47, -102, -5, 60, -56, -38, 31, 45, -66, -12, -16, -59, 95, -80, -72, -42, -22, -50, -49, 49, 59, 34, -43, -1, -40, -23, -26, 48, -37, -31, -75, -12, 20, 59, 72, -40, -67, -67, 44, -42, -31, -13, 35, -45, -81, -3, -75, -14, 75, 75, 71, 27, 86, -110, 59, -39, -19, 56, -4, -30, -89, -39, 102, 92, -80, 42, 78, 39, -51, -34, -72, 49, -39, -58, -70, -66, 60, 64, -19, 37, 15, -41, -69, -43, 88, 42, -86, 74, 34, 29, 91, -63, 14, -62, 62, -32, -21, -72, -22, -10, -84, -7, 56, -39, 14, 29, 19, -48, 64, -84, 90, 61, 57, -28, 29, 52, -77, -50, 85, 41, 39, 87, 65, -50, -29, 18, -24, -52, -3, -32, -88, 55, 56, -63, -27, -81, -52, 29, -62, 27, -61, 51, 34, -9, -20, 46, 54, -51, -12, -7, 54, 18, -47, 77, -56, -37, -58, -22, 72, 72, 48, 49, 22, 82, -88, -13, 23, 77, -117, -59, 27, -68, -17, 66, 78, -87, -79, -57, -27, -89, -12, -90, 32, -37, -73, 84, 35, -28, -72, 22, -4, -67, -77, -50, 76, 51, -1, -29, -4, 35, -62, -3, -6, 45, -56, -44, 16, -76, -89, 78, 65, -82, 90, 21, 80, -48, -78, -90, 72, -86, -48, -39, -59, 55, 18, 10, -68, 24, 20, -9, 102, 34, 50, -77, 74, 75, -17, 9, -67, -30, -86, 48, -77, -36, -25, -87, -3, -48, 59, -38, -50, 8, -6, 40, 49, -82, 44, -44, -25, 10, -50, 30, -8, -95, 23, 1, -5, 1, -26, -10, 51, 63, -64, 50, -22, -13, -81, -33, 88, 95, 73, -76, 64, -7, 49, -49, 14, 93, -30, -89, 21, 63, -49, 18, -49, -59, 87, -32, -68, 31, 68, 20, 61, -49, -38, -24, 67, -19, -10, 7, -3, 4, 34, -33, -30, 75, 73, 16, 12, -47, 77, 24, 63, -53, 31, 6, 59, -76, -30, -49, -60, -73, 1, -60, 56, -52, 42, 16, -12, -55, -30, -28, -56, 24, 24, 42, 40, -37, 2, 53, 26, -7, -68, -31, 64, 7, -88, 81, 96, -71, 32, 93, 61, 79, -62, 50, -38, -22, 115, -71, 88, -59, -12, -55, -68, 22, 45, 92, 81, -64, -52, -36, -72, -79, -9, -62, -83, -30, 94, -32, 23, -82, 81, -42, 88, -19, -10, 40, -44, 97, -64, 79, -30, 12, -82, 54, -82, -35, -28, 49, 27, -20, 65, 53, -18, -60, 28, -116, -67, -11, 90, 52, 37, -17, -8, -4, 65, 57, 37, -43, 74, -76, 96, 43, -72, -99, 75, 17, 67, -48, 83, 19, -66, -54, -83, 76, 28, 16, 21, -61, -1, 4, -23, -5, 33, -96, 2, 87, 54, 11, 55, 17, 47, 45, -61, 53, -28, -20, 62, -12, 55, 97, -74, 91, 26, -23, -33, 13, -17, 64, -61, 62, -83, 41, 41, -41, 91, 73, 76, -80, 47, 62, 19, 72, -46, 49, 51, 65, -4, -68, -10, -12, 86, -21, 49, 20, -38, 61, 89, 74, -59, -33, 5, 61, -43, 68, -92, 1, 15, -28, -38, 5, -81, -52, -29, 56, 49, -22, 40, -36, 25, 15, -38, -26, 39, -40, 71, -25, 97, 68, 50, -4, -18, -34, 15, -19, 64, 69, -27, 65, 39, -46, 82, -61, 47, -7, -58, 35, 99, 0, 38, 48, 43, -8, 28, -3, -43, 19, 32, -27, 32, -70, -65, -3, 67, -97, 73, 61, -14, 22, 18, 46, 12, -45, -62, -18, -72, 17, -1, 4, 1, -89, -24, -6, -75, 83, -87, 52, -81, 24, -21, 86, 30, -31, 33, -27, 16, -21, 13, -56, 19, -89, -1, -27, -65, 47, 11, 64, -16, -5, -68, -61, 41, -68, 85, 49, -65, -27, -40, -26, -64, -40, 71, -69, -9, 60, 36, 21, -68, -97, 13, -49, 22, -73, 76, 46, -68, -71, -88, -72, 94, -102, -28, -37, 18, 63, 48, 50, -32, 50, -56, -82, 78, -57, -89, 81, 6, -88, -78, -3, 18, -83, -65, -59, 45, 14, 64, 48, -6, -17, -96, 60, 24, 73, 73, 37, -61, 28, 91, 36, 73, -39, 63, 67, 42, 32, -78, 71, 52, -102, -23, 9, -56, -69, 50, 44, 23, 77, 19, 82, 53, -58, 29, 17, -73, -46, 98, 44, 18, -23, 89, 15, 12, 50, 39, -92, 49, 41, -36, -57, 68, 40, 63, -6, -14, 58, 75, -53, -55, -61, -47, 95, -8, 11, 18, -21, 60, 54, 76, -119, -45, 37, 46, -106, -8, -24, 65, 37, 33, 45, 28, -87, -47, -91, -75, 59, 53, -38, -9, -107, 26, -10, -12, -50, 57, -67, -6, 40, 58, 38, -36, -10, 1, -72, -61, -34, -48, -74, -57, -7, -47, -16, 32, 3, 50, 59, -33, -97, -44, -13, -12, 81, -27, 63, 22, 50, 26, -35, -53, 84, -52, -3, 100, 13, 27, 92, -47, -85, 3, 43, 34, -51, 40, 13, 65, -59, 26, 6, 27, 11, -56, 52, -18, -95, -25, 71, -95, -11, 39, -36, 46, 111, -18, 76, 104, 47, -70, -9, -19, -44, -76, 42, -95, 60, -70, -54, 115, -34, 15, 82, 76, -3, 35, 68, 61, -125, 64, 59, -12, -28, -61, 72, -87, -14, 62, 90, 77, 9, 6, 60, 31, -52, -33, -109, -72, -79, -83, -51, 50, 78, 4, 4, 81, -6, 72, 27, 31, 68, 80, 33, -47, 18, 85, -67, -73, -21, -37, 18, 40, 61, -54, -30, 99, 23, 81, 52, 46, -64, -59, -47, -43, -55, 47, 34, 62, -85, -98, 1, -70, 52, 102, 26, -21, 25, 75, -48, -118, -70, -39, 0, -43, -11, 29, -34, -24, -84, -28, 55, 6, -10, -32, 95, -21, -35, 66, -94, -72, -41, -78, -5, -24, 11, 2, -48, 25, 103, 103, -40, 1, 61, -12, 57, 38, -110, -19, 33, 54, -39, -52, 9, 0, 37, -74, -16, 47, -32, -8, 70, 49, 59, -76, -32, 69, -32, -9, -20, 42, 25, 44, -69, -38, -14, -18, 36, 13, -23, 81, -23, -58, -62, -56, 43, 78, 29, -76, -4, -88, -81, 63, 47, 38, -88, -105, 34, 63, -80, -24, 47, -48, -11, 51, -64, 88, -21, -78, 63, -83, -15, -2, -46, -56, -35, -84, -78, 92, -67, -87, 40, -29, 78, 32, -37, -90, -20, 59, -22, -83, -25, 26, -106, 10, -6, -56, -112, 80, -25, -95, -8, 64, -65, -34, 64, -9, 5, 85, -34, -49, -35, 51, 62, 90, 36, 86, -3, -26, 67, -34, -91, -83, -97, -12, -81, -101, 2, -24, -107, 24, -16, -35, 70, 27, -5, 7, -37, -54, 2, 89, -6, -65, 55, -17, -29, 54, 18, -66, -79, 69, 64, 26, -32, 58, -84, -56, -35, -9, 88, -11, -69, -25, 10, -112, 44, -32, -27, 83, 63, 104, -83, 97, -103, 27, 41, 11, -42, -104, -62, 49, -26, -29, -20, 90, -78, -91, -108, 17, 54, -8, -20, -67, 31, -105, -79, -69, 92, 5, -48, -31, 9, 80, 69, 70, -91, -3, 58, -68, -14, -98, -61, -73, 40, 56, 43, -72, 50, 27, 20, 80, -10, -52, 62, 42, -47, -70, 84, -28, -19, -23, 58, 44, 38, -23, -94, -6, -6, -99, -85, -1, -60, -81, 33, 6, -30, -76, -87, -57, 86, -57, 29, -62, 57, -40, 71, -20, 27, -99, 14, 26, -86, -96, -91, -86, 66, 93, -5, 11, -28, 59, -14, 91, -28, -40, -1, -39, -60, -74, 50, 60, 22, -106, -88, 2, 66, 64, -57, 39, -79, -37, -8, -103, 63, 88, 43, 64, 73, 82, -22, 100, 19, -6, -74, 60, 100, 16, 70, -23, 11, -15, 42, -49, 73, 33, -5, 21, 48, -88, 100, -13, -15, -58, -6, -25, 29, -28, -57, 28, -37, 105, 61, 6, 25, -18, 1, 81, 84, -94, 77, 42, -6, -3, -27, -72, -11, -40, -19, -30, 15, -56, -26, 20, 50, -86, -28, -107, 59, 70, -107, -44, 102, -17, -40, 97, -63, 33, -112, 32, -60, 46, -42, 89, 15, -70, -49, -117, 102, 74, -28, 55, -98, -16, -39, -67, -64, 51, 26, -87, 31, -33, -71, -39, -1, 41, 5, 77, -23, -58, 64, -89, -36, 67, 89, 32, 19, 77, -83, -103, 112, -27, -59, 22, 76, -34, -29, 120, -117, -78, -39, 59, 90, 48, -16, -66, 39, 39, 57, 44, 26, -30, -98, 94, 107, 5, -15, 2, 56, -76, 77, -53, 89, 72, 29, 75, -79, -91, -48, 73, 18, 34, 61, -103, -30, 56, 55, 40, 101, -22, -2, 95, 2, 79, -123, 63, -65, -57, -82, 114, -25, -73, -76, -80, 5, 23, 39, 29, 60, -69, 52, 39, -108, -90, 0, 34, -24, 110, -14, -25, -23, 32, -108, 26, 20, -42, -111, -49, 46, -3, 37, 92, -52, -25, -97, -115, 41, -112, -74, -19, -81, 84, 99, 105, 40, -116, -6, 54, -63, -17, -27, -20, -13, 1, 13, -24, 1, 59, 14, -52, -58, 40, 70, 57, -63, 18, -85, -46, -8, 18, 3, -33, -112, -96, -21, -23, -105, -36, -3, -73, -15, -59, -103, 17, -81, 27, -22, -59, -108, 20, -88, 20, 80, -42, -79, 57, -87, 29, 31, -35, 95, 56, -92, 4, -95, -78, -9, 12, 64, -4, 63, -14, -10, -49, -107, 59, -39, 28, 21, 11, 32, -44, 37, 91, -22, 76, -81, -15, -37, -23, -53, -69, -11, 44, 54, -41, -16, 14, 89, 45, 49, -6, -17, 0, 49, -62, -36, -18, -63, -11, -74, -44, -54, -58, -72, 20, -51, -98, 38, -35, -105, 31, 30, -36, 84, -27, 38, 19, -113, 69, 12, -29, -10, -60, 23, 9, 9, 15, 51, 54, -54, 64, -111, 76, 13, 0, -24, -20, 38, -27, -92, -63, -6, 91, -47, 26, -96, -97, -26, -24, 35, -37, -11, 79, -12, -115, -8, -22, -90, -48, 70, 50, -32, -38, -62, -7, -34, 62, -89, 39, 94, 15, -92, 27, 7, -92, -4, 53, -52, 58, -47, 65, -9, -15, -6, -1, 64, -71, -12, -95, -41, 32, 74, -71, 55, 96, -66, 58, 54, 26, -94, 64, 28, -59, -30, -37, 59, 32, -21, 13, -6, -71, -28, 71, -53, 8, -45, -44, -77, 12, 0, -62, 87, 4, 25, 90, -3, 55, -70, -77, -36, -88, 39, 27, 24, -52, -105, 18, -70, 31, -28, -35, -86, -81, 50, 8, 46, -41, 34, -36, 46, -3, 52, 29, 35, 82, -15, 96, 58, 18, -10, 20, 7, 20, -38, -26, -24, 8, 74, -10, 1, 11, 64, 68, 90, -74, 21, 65, 48, -42, 57, 2, 57, 0, -2, 55, -8, -40, 0, 89, 91, -69, -82, 69, -100, -64, 58, 80, -57, 103, -91, 79, 13, -7, -83, 15, 46, 46, -63, 98, 47, -29, 54, -82, -14, -73, 80, 106, 47, 54, 52, 76, 58, 79, 84, -25, -37, 16, -44, -63, -16, 5, -40, -69, 14, -84, -29, -39, -1, -23, -98, -71, 33, 14, 66, 42, 68, 27, -37, -47, -85, 41, 40, -49, -34, 1, 55, -3, -59, -55, 51, 90, -18, 8, 62, 72, -27, -14, 20, -64, 16, 24, 25, 58, -44, -110, -8, 86, 14, 21, 48, -84, -63, -7, -27, 91, 10, -4, 22, 62, -67, -64, -59, -46, 81, 96, 44, 69, -4, 14, 32, -79, 91, 6, 57, 108, -36, -9, 96, 113, 68, -22, -29, -59, 60, 11, -66, 59, 0, 95, 3, 76, -101, -50, 15, -29, 21, -50, 29, -68, 37, -62, -121, 27, -9, -29, 33, 18, 6, 28, 41, 86, 0, -81, 24, 107, 57, 58, -12, 58, -7, 107, -48, 120, -37, 9, 51, 41, -44, -23, -63, 94, 28, -25, -38, 56, -23, -19, -113, 45, -3, 37, -69, 56, -119, 20, 23, -51, 68, -41, -42, -55, 59, 104, 24, -46, 13, 24, -41, -65, 65, -7, -85, -57, -26, 60, -17, -33, 31, -86, -58, 59, -31, -4, 110, 83, -104, -124, 58, 53, 91, -35, -39, 17, -17, -51, -100, 78, -32, -37, 48, -3, 86, -40, 41, 60, 64, -65, -16, -112, 11, 70, 43, 59, -24, 59, 48, 43, -59, -117, -16, -19, 4, -29, 9, -45, -27, -51, -38, 35, 51, -37, 7, -94, -68, -26, -10, -51, -70, 74, -54, -101, 86, 15, -64, 8, -83, 77, 98, 69, -32, -51, -33, 37, -72, -19, -27, -60, -62, -50, -47, 88, 24, -14, 60, -28, -76, -71, -37, -39, -79, -8, 31, 52, 26, -46, 40, 83, -26, -24, -63, -19, -31, -5, -26, -12, -59, -72, 30, -5, -46, 37, -104, -33, -103, 3, -82, -58, -8, 93, 3, 98, 62, -70, 6, 9, 54, -40, 34, 54, 72, 25, -71, 72, -31, -1, 32, 5, -31, 39, -54, 38, 29, 50, -44, -57, -62, -8, -101, -33, 99, 71, -2, 70, -72, -77, 50, -67, 93, 75, -11, -71, -92, 45, -42, -91, 73, 23, -40, 27, 63, 25, 52, -21, 65, -86, 62, -9, 1, -98, 56, 61, -12, 3, 86, -14, -56, 32, -36, 11, -82, -50, 2, -84, -66, -97, -71, -25, 4, 49, -70, -45, 72, 66, -40, 46, -6, -10, -11, -98, -47, -14, -109, 95, -95, 30, 39, 64, -1, -16, 74, -12, -62, -17, 28, 6, -62, -98, 48, -10, -25, -75, -34, 39, 71, 62, -71, -29, -89, 53, -62, -82, -35, 34, -40, 94, -95, 23, 78, -8, -77, -87, -15, -59, 23, -10, 46, -11, -25, -21, -18, 48, -94, 53, -69, 65, 24, 45, -80, -87, 39, -21, -23, -65, -111, 3, 107, 35, 85, 18, 44, 38, 72, -63, -10, -71, -27, -29, -41, -56, -4, 32, -5, 27, -10, -83, -86, 35, -31, 42, -69, -54, -32, 19, -90, -44, -66, 14, -7, -45, 102, 1, -98, 13, 11, -57, 6, -55, -19, 82, 2, -42, -44, 14, 37, 6, -70, -23, -100, 36, 63, 95, -55, -89, 31, 68, -70, -84, -34, -73, -17, 51, 27, -73, 39, 88, 77, 81, 32, 34, 34, -62, -86, 80, 71, -11, -96, 101, -3, -105, -19, 49, -83, -24, -59, -31, -17, 0, 82, 18, -48, 37, 34, 9, 76, 76, -83, -43, -11, 49, -18, -20, -47, 37, -74, -72, -9, -49, -48, 41, 19, -76, 58, 18, -31, 62, -46, 24, 93, 63, 96, 71, 6, -75, -5, -77, 74, -70, 83, -55, 94, -16, -8, -6, 112, 42, -53, 103, 120, 34, -25, 86, 70, 36, -48, 44, 14, -79, 49, 68, -68, 51, -29, 19, 58, -56, 67, -90, -37, 21, -90, 28, -12, 54, -10, -6, -22, 93, -50, 66, -5, -17, 15, -57, -32, 29, 12, -24, -23, 0, 66, 49, 75, 15, 16, -29, 23, -91, 31, -12, 1, 42, -27, 33, -92, 4, -5, 18, 86, 53, -7, -53, 71, -39, -66, 31, 5, -39, 84, 0, 22, -69, 75, 0, 26, 45, -73, 42, 30, -61, -16, -19, -90, 34, -70, 29, 22, 64, -89, -11, 59, 94, 65, 12, 3, 55, -24, -72, -106, -112, -11, 111, 35, 18, -79, 8, -36, -41, -114, -63, -87, -17, 49, -50, -31, -73, -89, 31, 48, 24, -23, -66, -65, 50, -90, -76, -84, -43, 31, 13, 51, 25, -18, -47, -85, -26, -31, 70, 25, 101, 41, 27, -115, 7, -42, -29, 33, 42, -8, 74, -83, -93, 20, -16, 82, -87, -56, -84, 70, -49, 67, 45, -17, -8, -95, 57, 50, -91, 52, 69, -64, 79, -53, -27, -73, -71, 60, 63, -65, 14, 14, -77, 41, 90, 14, -95, -22, -5, 17, 85, -15, 31, -15, 34, 47, 1, 11, 14, -8, -46, -60, 41, 77, 6, 0, -33, 38, 80, -37, 82, 58, 78, -77, 50, 64, 88, -74, 2, -19, 21, -115, -41, -98, -100, 90, 89, 26, -52, -56, 46, -5, 36, 15, 15, -92, 39, -123, -31, -16, 83, -19, 11, -97, -4, -23, 50, -31, 26, 35, 24, 26, 44, 30, 75, 61, -85, 90, -89, -83, 2, 64, 36, 89, -26, -19, -33, -48, 49, 22, -40, -21, -87, 60, -35, -29, 73, 51, -103, 53, -39, -101, -21, -15, 99, -48, -79, 26, 53, 13, -21, -50, -106, 51, 72, -80, -14, 110, 44, 53, -74, -13, 68, -104, 21, 110, 23, 39, 60, -49, -15, 99, 42, -81, 58, -66, 60, -59, 18, 37, 0, -13, -17, 30, 81, -31, 46, 29, 10, 122, -87, 19, -46, -16, -99, -59, -24, -27, 83, 22, 47, -32, 65, -62, 70, 88, 28, -35, -48, -83, -103, -63, 27, 19, 54, 33, -71, 63, -48, -27, -44, 11, 33, 56, 39, -47, -9, -69, -43, -24, 69, 26, 50, 39, -65, 41, 20, 42, 105, 2, -17, -9, -32, -21, 18, -28, -21, 102, -57, -26, 102, -19, -85, 40, 79, -73, 27, 48, 83, -19, -18, 13, 75, -12, -8, -56, -34, -69, -71, 20, 76, 63, 31, 56, 90, -5, 40, -47, -105, -64, -36, -6, 25, 45, 22, 71, 2, 61, 13, -72, -12, -84, 26, -3, -75, -102, 23, -23, -23, 65, 38, 14, -23, 66, 102, -75, 0, -55, 39, 83, -62, 5, 39, 43, -63, 25, -16, 1, 76, -112, -40, -69, -85, -50, 19, -18, -13, -76, -40, 29, 94, 52, 92, 56, 34, 87, 36, 56, 52, -7, 36, 21, -44, 11, -21, 80, 95, 83, 65, 42, 31, 75, 52, -69, -45, 58, -6, -63, 74, -46, -49, 3, -31, 24, -24, -127, -24, -68, 72, 37, 32, 101, -49, 47, 3, 80, -19, 16, 34, -30, 56, -66, -5, 33, 21, -32, -31, -96, 76, 94, -51, -82, -32, -6, 83, -54, -4, -26, 86, -16, -24, -18, -22, -11, -42, 7, -31, 65, -66, 89, 76, -28, -96, 1, 47, -88, -30, 55, -67, -123, -2, -42, 24, 37, -39, -84, -77, -15, 41, -44, 41, -3, 30, 15, 23, 97, 61, -58, 52, 60, -17, -79, 77, -48, 81, -95, -42, 21, 89, 19, 73, -38, 61, -50, -36, -33, 35, -13, -21, -100, 18, 16, -29, -72, 53, -103, 55, -28, 72, 33, -97, -28, -40, -27, -55, -87, 53, 11, 74, 54, 3, -74, -26, 7, -3, -105, -92, -23, 23, -62, 87, -76, -86, -26, -83, 22, 41, 32, -30, -30, -53, 83, 93, 7, -60, 27, -61, -79, 44, -40, 86, 43, 61, -62, 11, 30, 29, 64, -17, 29, 34, -78, -3, 42, 50, 80, 64, -74, -37, -51, -10, -41, 23, -19, 51, 18, -108, -2, -61, 20, 84, 12, 21, 3, 87, -80, -76, -51, -75, -6, -35, 14, 48, 33, 84, -37, 94, 11, -72, -43, -29, 28, 70, 64, -50, -51, 33, 76, -60, -41, 92, 7, 13, -1, 20, -78, 54, -59, -60, -27, -80, 26, 46, 19, 63, 72, -47, 71, -66, -17, -53, -69, -52, -21, 12, -32, 26, -64, -34, -67, -5, -75, 82, -92, -27, 60, 24, -1, -43, -35, 13, -29, -44, 45, -33, 49, 77, 81, -32, -94, -92, -23, 59, -51, -55, 87, -24, 19, -9, -37, 55, 39, -28, -87, 13, -12, -4, -67, 4, 11, -49, -88, 78, 3, -97, 19, -90, -14, -39, -12, -40, -37, -47, -5, -39, -29, -32, -31, 76, 17, 63, -93, -70, 13, 101, -26, 71, -62, -73, 91, 6, 82, 52, 68, -69, -31, 66, 53, 95, 14, -23, -85, 44, 46, -88, 12, 99, 1, -51, 16, 53, 13, -63, -79, 64, 106, 95, -102, 30, -36, -65, 78, 83, -43, 69, -31, -78, 110, -63, 19, -23, -30, 6, 70, -71, -78, 19, -100, -3, 48, -51, -10, -96, 101, 22, -111, -91, -27, -24, -29, -100, -45, -50, 80, 7, -97, -52, 17, -90, 71, -45, 106, 62, -30, -107, 31, -88, -57, 55, 58, 44, -97, 77, 33, 8, -52, -58, -1, -68, 8, 20, 30, -25, -93, -37, -45, -56, -9, -95, -34, 42, -26, 10, -50, -16, -87, -41, -61, -60, 37, -69, 13, -77, 72, 64, 72, 35, -45, 85, 64, -36, 30, -48, 55, 29, -69, 84, -49, -76, -55, -94, -31, 32, 7, 23, -51, -63, 38, -43, 66, -77, -61, 55, 71, 94, 60, 12, 10, 33, 90, -33, -86, -44, -70, -67, -50, 25, 86, 34, 14, -27, 1, -77, -89, 23, -73, 3, -16, 22, -107, -83, -94, -41, -17, -59, 24, 110, -32, 21, -63, -57, -28, -24, -64, -95, 71, 109, -31, 79, 19, -25, -52, -15, -88, -80, -34, -58, -64, -10, -32, 86, 9, -84, -37, 31, 47, 8, 20, 102, 59, -17, 73, -15, -51, 25, -47, -64, -39, -24, 50, -61, -46, 17, 74, -12, 11, -33, 94, 8, -88, -80, 11, 52, 78, -18, 44, 52, -6, 7, 21, 98, 15, 46, -101, -38, -9, -96, 59, -17, 73, -20, 75, 65, -86, 45, 18, -94, -75, -42, 0, 25, -105, 67, -22, -92, 0, 43, -36, -66, 36, 62, -69, -53, -23, -75, -108, 91, 6, -42, -18, -16, 75, 1, -80, -89, 81, 17, -5, 60, -61, -49, -9, 37, -71, -4, -14, 84, 100, -82, 5, 82, 12, 38, -53, 22, 41, -45, -24, -79, -17, 29, -47, 92, 53, -67, 2, -8, -53, 78, -13, -80, -27, -85, -54, -96, -20, 70, 21, 73, -13, 77, 4, 88, -91, -67, -77, 28, -89, -60, 4, 81, -64, 3, -39, -57, -14, 21, 79, 60, 60, 82, 42, 6, -65, 67, -54, 11, -74, -15, -118, 50, 6, 71, 68, -29, -27, -44, 18, -85, 25, 30, -96, -93, 61, -6, -45, 54, -12, -30, 20, 13, -32, -1, -67, 2, -66, 74, 60, -17, -8, -6, -25, -85, -94, -68, 97, 19, -78, 57, -93, -61, 49, -67, -68, -15, -93, -24, -48, 41, 4, -4, 59, -15, -82, 73, 46, -73, 68, 44, -72, 36, -52, 58, -58, 84, 11, 20, -21, 95, -45, -31, -75, 24, -67, -65, 16, 52, 50, 61, 44, -75, 5, -42, 72, 44, 71, 86, 87, 85, 12, -82, 6, 40, -72, -22, -6, -8, 71, 64, 21, 45, 55, -4, -73, -96, -38, 7, -82, -56, 77, 8, -3, -40, -50, -1, -39, 3, -7, -28, 46, 86, 78, 86, -59, 97, -86, 20, -64, -32, -77, -3, 3, 51, -73, 7, -41, -36, 75, 11, -1, -36, -52, 5, -86, -84, 88, 82, -79, 41, -87, -36, 69, -21, -55, 28, 31, 32, -28, 4, 90, 26, 42, -107, -93, -9, -29, 70, -70, 35, -29, -85, -41, -24, 66, -80, -69, -49, 95, 62, 58, 70, 85, -90, 2, 6, -51, -81, 65, -82, 3, 87, -40, -10, 34, 25, 9, -82, 53, -87, 28, 16, -63, 35, -35, 83, 37, -83, -99, -93, 23, 15, -75, 70, -60, 50, -71, -35, -91, 43, 98, -89, -69, -30, 4, -94, 77, 67, 72, -22, 92, -56, 63, 36, 51, 14, -38, 25, 60, 40, 47, -60, -72, 61, -43, -83, 6, 46, 49, 76, 57, -62, -42, 25, 107, -10, -73, 62, -83, -68, -79, -9, 100, 93, 70, -53, -46, 55, -32, -31, 47, -68, -97, -84, 57, 6, 64, -110, -43, 26, 4, -69, -62, -13, -15, -42, 53, 47, 88, -48, -39, -61, 44, -96, -45, -70, -56, -19, -67, 5, 3, -37, -57, -12, 8, 15, 54, 46, -45, -55, -56, 8, 36, 34, -85, -108, 37, 32, -32, 11, 33, 66, 37, 5, -76, -33, 65, -75, 28, -25, 80, 78, 97, -22, 119, 11, 26, 73, -3, -64, -105, -36, 60, -105, 75, -63, 44, -75, 89, -37, -41, 61, -1, -35, 31, 16, 56, -91, -13, -58, 19, 36, 9, -20, 14, -5, 81, 81, -63, 11, -4, 28, -94, 2, -18, -94, -88, -78, 59, 0, -75, -20, 103, 102, -77, 69, -10, 64, -62, -58, -78, 41, 9, 15, -35, -56, -10, 61, 84, -22, 25, -24, -91, 6, -67, -26, 73, -54, -79, 43, 91, 48, 77, -79, -47, 29, -27, -46, -28, 56, -19, -49, -20, 16, -58, -73, -51, 86, 29, 48, 69, 66, -19, 14, -16, 83, 46, -34, -33, 27, -18, -104, -45, -65, 38, -7, -30, 87, -87, 77, 89, -31, 80, 34, -8, -68, -113, -68, -53, 19, 66, 42, -31, 1, 92, -83, -6, -11, -63, 2, -40, 52, 48, -42, 2, 28, -118, 36, 29, -67, 50, -33, -70, -97, -62, 5, 70, 34, -80, -16, 22, -65, -20, -53, -1, -56, -77, 76, 29, 16, 56, 0, 90, -28, -26, 33, -27, -50, -124, -45, -56, -69, -27, -62, 39, -85, 36, -53, 59, 31, -65, 95, 54, -23, -85, -54, -10, -85, -21, -17, 90, 41, -97, 27, -60, -54, 33, -1, -66, 79, -24, 34, 6, -71, 4, -28, 26, -22, 1, -42, -103, 63, -86, -75, -28, 54, -46, 75, -64, 16, -69, -24, 34, 49, 47, 35, -3, -10, 0, 81, 70, 53, -96, 37, 79, -50, 21, 41, 55, -51, -65, 33, 52, 47, -36, -54, 84, 26, 52, 57, 71, 59, 27, 42, -54, 26, 48, -24, -22, 22, -1, 15, -16, 3, -113, 0, -107, 27, -12, 17, 74, -51, -18, -79, -26, 21, 89, -13, -98, 6, -1, -35, 69, -12, -31, -66, 52, -54, -85, 59, 68, -82, -72, 3, -60, -62, 77, -2, -68, -81, 65, 82, 57, -111, -85, 18, -82, -46, 36, -58, -28, 49, 42, -100, -80, -43, -88, -68, -90, 57, -4, 26, 49, 46, -76, -95, -53, 70, -41, 39, -63, -20, 22, -64, 60, 37, -9, -86, 33, -61, -61, 14, -94, 4, -91, -40, 96, -46, -68, -95, 38, -13, -16, 20, -76, 47, -67, -68, -32, -21, 99, -57, -24, 48, 67, 55, 6, -63, -60, 61, 38, 67, -80, -71, -33, -83, 44, 33, 30, 12, -73, 35, 107, -55, -74, -24, 10, -64, 38, -77, 69, -67, -29, 32, -86, 8, 71, 87, -78, -60, 23, -41, -32, 38, -12, -24, 55, 18, -23, -28, -33, -34, -60, 29, 40, 105, 60, 26, 30, -43, 93, -60, -57, -30, -7, -54, -55, 97, -10, -56, 19, 68, -5, 43, -44, -2, 84, -58, -74, -57, 79, -52, -62, 79, -105, -33, 69, 32, -65, -62, -55, -77, -37, 31, 67, -38, 108, -30, 114, 106, 95, 66, -71, -47, -18, -31, 107, 5, -20, -5, -77, 86, 51, -37, 54, 2, -21, 26, -37, 121, -58, 39, -57, -80, -10, -18, -64, 45, 79, 36, 54, 102, 12, 60, 35, 88, -4, 20, 72, 32, 11, 23, 61, 38, 65, 21, -41, -77, 76, -40, 47, 86, 54, 79, -75, 14, 41, 56, 49, 17, -57, -16, -42, -13, -62, 84, -38, -61, 11, -16, -24, -45, 62, 39, 51, 80, 51, 47, -46, 113, 3, -50, 85, 71, -44, -79, 61, 19, 38, -121, -13, -29, 59, -33, -33, 1, -16, -60, 64, -2, 57, -26, -2, -64, -28, 52, 8, 72, 36, -95, -50, 83, -42, -62, 3, -8, -96, 71, 67, 41, 85, -52, 64, -63, 33, -44, -15, -25, -56, -89, -36, -73, -51, -10, 15, -25, -83, 86, 58, -75, 6, -53, -67, 54, -63, -37, 93, -17, -15, -78, 12, 50, 20, -77, 7, -104, -3, -83, 75, 88, 107, 47, -89, 38, 42, 86, 83, -33, 14, 17, -13, -43, 71, 26, -58, 73, -9, 15, 52, 35, -22, 8, 91, -77, -58, -12, 62, 80, 48, -58, -75, -56, 27, -36, 42, -88, -90, 1, 18, -74, -69, 84, 15, 1, 50, -77, -90, 50, 43, 73, 36, 44, 62, 35, -84, -29, -28, -111, -98, -50, 44, -10, -28, 19, -63, -54, 17, 59, -92, -53, 34, 75, -25, -49, -46, 19, -102, 3, 56, 29, -29, -7, 0, -107, -55, 16, 16, 9, 40, 8, -80, -31, -27, 8, -44, -48, -85, -38, 14, 16, 30, -80, -83, -36, -93, -79, 65, -44, -119, -28, -25, -6, -2, -56, -84, 24, 55, -15, 24, -57, 84, 28, -76, -16, 22, -64, -89, -37, 50, 48, 79, -31, -20, 65, 3, -42, -112, 50, 23, 19, -90, -15, -25, 61, 95, 21, 11, 40, 33, 7, 56, -28, 91, -31, -8, -51, -68, -31, -28, -60, 104, -76, 2, 78, -81, -1, -97, 45, -19, 66, -64, -71, 64, -22, -15, -2, -32, 67, -67, -118, 50, -59, -70, 13, 9, 79, 76, -73, 62, 50, -110, 49, -28, -10, -64, -46, -16, 89, -46, -1, -12, -65, 43, -32, 39, 34, -80, 3, 7, -47, 94, 35, 62, 67, -57, -27, -67, -95, 22, -6, -11, 1, -60, -68, -65, -2, 63, -42, 1, -5, -60, 86, 8, 15, 12, 13, 87, -76, -39, -28, 61, -5, 39, 45, 71, 79, 76, -77, 66, -83, 45, 72, -65, -23, 8, -67, 39, 33, 72, 70, 14, -52, -56, -91, -2, 6, -54, 60, 40, 30, 2, 27, -108, -51, 20, 41, -25, -13, -59, 28, 38, -60, 54, -74, 42, 14, -49, -56, -35, -40, -53, -48, 73, 5, -4, 57, 39, 4, 70, 70, 35, -13, 84, -24, 16, 11, 110, -43, 46, -83, -67, 13, 58, -4, 29, -102, 4, 54, -44, 4, -56, 71, 10, -14, -66, 69, -3, -65, 64, 114, -108, 38, 48, -52, 77, -38, -41, -9, -67, 72, -15, -62, 55, 36, 98, -47, 16, 40, -26, -46, 19, 43, 68, 65, -18, 48, -16, -103, 42, 6, -43, 80, -13, -91, 82, -27, -67, 71, -74, 7, -13, 92, 37, -39, 41, -111, 76, -55, -12, -97, -48, -81, -54, -32, -1, 23, -80, 50, 8, -97, 85, 75, 5, 115, 31, -40, -72, 17, -26, -37, 66, 16, 95, -17, -6, 0, -70, -3, 19, 8, -95, -28, 68, 54, 30, 51, 78, 49, -54, 31, 0, -31, -6, 62, 32, 60, 58, -63, 42, 71, 64, 27, -38, 31, -63, 79, 28, -83, 7, 1, 45, 14, -1, 15, -15, 23, 55, -75, 71, 6, -84, -100, 79, -23, 76, -4, -64, -8, 10, 11, 42, -47, 55, 73, -53, 33, 4, 60, 28, -62, -15, 69, 11, -110, -87, 62, -75, 2, 41, 30, 103, -70, 27, -42, 36, -65, -51, 12, 65, 50, -5, 69, 66, -22, -40, 40, -11, 4, 17, 80, -97, 3, 65, -88, 73, -46, -90, -63, 69, -100, 23, -28, -20, -29, 37, 77, -94, 79, 6, -40, -23, 69, 78, 78, -96, -73, 63, 81, -84, 50, -88, 43, -15, 42, -61, 16, 86, 60, 26, -21, 18, -76, -16, -43, -2, 80, -84, -51, -30, -26, -72, -32, 73, 82, 18, 12, -88, -33, -40, 93, 71, -14, 48, -20, 25, 85, -79, 70, -56, -21, -94, -80, -76, 6, -82, 64, -74, 26, -34, -45, -29, -15, -85, -17, -8, 94, -61, -82, -83, 14, -52, 44, -15, 1, 58, -98, 27, 54, 65, -56, -102, -58, 96, 25, -25, 40, 12, 5, 70, 76, 96, -25, 30, 26, -91, 23, -96, -22, -29, -81, -26, 69, 22, 30, -28, -4, 86, -88, -33, -75, -62, -43, 4, -17, 6, 19, 25, 24, -68, -19, 33, 25, -76, 72, 29, 28, -21, -32, 37, 81, 63, -45, 12, -58, -87, 76, -57, 68, 69, -86, -34, -69, 78, -69, 69, 32, -41, -19, -74, -75, 76, 11, 36, -75, -36, -88, 90, -28, -13, -5, -84, -55, 58, -85, 22, 19, -27, -25, 82, -50, 82, 75, 48, 65, 71, 57, 99, -59, 45, -65, -10, 18, -10, -16, 74, 53, 26, 1, -64, 93, -61, 11, 76, 59, -25, -62, 74, -6, 3, -24, 27, -29, -17, -5, -53, 67, 47, -15, -40, 25, -65, 80, 55, -79, -66, 44, -2, 1, 9, -67, 81, 31, -6, -9, 7, 94, -60, -100, 106, 38, 39, -44, 29, 69, 7, -15, -19, -54, -105, -90, -3, -68, 67, -56, -28, 85, -53, 85, 106, -25, -86, -14, -77, -107, -27, 33, 40, -18, -105, -44, -78, -48, 66, -56, 38, -62, 17, -48, 61, -69, -109, -43, 43, 54, -45, -88, -59, 55, 7, 89, 64, 48, 3, 76, -19, -26, -47, -16, -23, -20, 76, 79, -27, 61, 9, 76, -99, -78, -16, 38, 2, -2, -98, 56, -45, -11, -97, 48, 66, -42, -41, -67, 38, -90, 77, 2, -78, 36, 105, -30, -47, 2, -76, 17, 107, -73, -38, 18, -97, -39, 77, -66, -43, -19, 36, 67, -15, -55, -65, 85, -66, -84, -39, -38, -61, 36, -18, -48, -93, -80, -43, 63, 77, -14, -69, 17, 1, 70, 0, 73, 19, -61, 99, 104, 27, 28, -82, -69, -51, -15, -64, -93, 106, 72, 106, 11, 72, 77, -63, -96, 19, 86, -2, 72, 64, 107, 47, 24, 18, 34, 0, -41, 16, 5, 20, -8, 75, -87, 9, -82, -4, 47, -31, -92, 48, -73, 44, -90, 9, 1, 88, 32, -42, -68, -67, 73, -41, -28, -74, -5, -72, -27, -12, 7, 11, -6, 28, 61, -64, 77, 19, 62, -16, 68, -67, 42, 86, -9, -14, 105, -14, 58, -80, 3, 14, 72, 77, 35, 82, 100, -99, 61, -84, -1, -32, -21, 8, -13, -53, -17, -57, 19, -94, -14, -31, -41, 36, 2, -96, -62, -37, -46, -77, 53, 37, 51, -15, 1, -31, 25, 38, -12, 51, 36, -100, 16, 24, 86, 82, 62, 56, 84, -71, 62, -77, 20, -2, 70, 29, -22, 57, -35, -15, 35, 39, -89, -44, 31, -61, 45, -79, 1, 109, 13, -41, -31, -43, -77, -107, -57, 6, -96, 31, -29, 64, -84, -39, 42, 59, -22, 66, 47, 10, 1, -98, 94, 11, -60, -96, -66, 79, 60, -86, -34, 69, 76, 13, 0, 92, -12, -69, -21, 71, -35, -41, 52, -89, 48, 21, 31, -10, -94, -46, -52, -33, -73, 99, -55, -47, 65, -28, 41, -67, 9, -55, -49, 99, -52, -8, 73, 47, 25, -29, -40, -71, 29, 83, -94, -83, -72, 53, -25, -43, -54, -26, -45, 0, -79, -47, -96, 47, -95, -34, 61, -15, -92, 9, -6, -63, 104, -11, -27, 70, 83, 48, -39, -25, -9, 2, -1, 6, 60, -4, 24, 54, 33, 89, -30, -25, -41, 10, -87, -85, 90, 60, -103, 85, 24, -69, 6, 35, 53, -94, 53, 75, 21, 1, 43, 68, -9, -71, -27, 82, 1, -79, 41, -35, -28, 88, 16, -27, -76, 61, 14, 13, 89, -89, 35, 15, 50, 17, 5, 91, 66, 42, 52, -8, -19, 27, -25, -42, 25, 27, -58, -7, 14, 75, -77, -35, 18, -42, 58, 14, -22, 32, -65, 27, -22, -65, 46, 68, -30, -29, 29, -76, 29, -73, 69, 83, 11, -45, 32, 48, -8, 50, -35, 70, 84, 7, 13, -69, -40, 66, 51, -31, -97, 116, -74, 36, -10, -3, 75, 33, -14, 106, -20, 64, -35, -38, 27, 5, -61, 69, 62, -73, -108, -12, 18, 75, -80, -19, -26, -46, -66, 63, -87, 33, 80, -57, 103, -75, 72, -26, -3, -28, -81, 66, -29, -88, 41, -72, 45, -11, -96, -29, -42, -81, -25, 5, -71, 23, 46, 38, -75, -88, 15, -70, -3, -6, -77, -31, 117, -53, -35, -41, 45, -77, -27, 100, -12, 49, -35, 49, 41, -67, 79, -38, -74, 77, -83, 32, 21, -79, -70, -72, 91, 35, 53, -27, 54, 63, -72, 106, -17, 40, -69, 11, 82, -1, -88, 17, -8, -34, 20, -17, -8, 22, -57, 20, 10, 40, 15, 38, 62, -90, -42, -50, 86, -5, -45, 83, 57, -57, 13, 86, 62, -28, -45, -1, -30, 71, 13, -41, -95, -53, 84, -3, -70, -65, -25, 64, 64, -56, -100, 92, -23, 52, -6, -49, 0, 14, 33, 66, 52, -7, 83, -55, 9, 2, -25, -92, -95, 49, 10, -6, 51, 41, 1, -10, -95, -72, -17, -79, 85, 44, 63, 87, 55, 49, -1, -100, -60, 50, -95, -73, -83, 59, 15, 106, -85, -41, -28, -31, 36, -94, -64, 50, 44, -33, -18, -51, -91, 23, -33, 1, 26, -64, -60, 49, 24, -82, 55, -86, 68, 23, 69, -37, -58, 2, -14, -32, 88, 58, 13, -91, -38, -80, -58, -26, 37, -82, -89, 0, 70, -35, -81, 81, 12, 26, 28, -43, 69, -7, -3, -43, 32, -96, -9, -93, -77, 107, -16, 59, -13, -33, -49, 41, -42, -97, 11, -53, 6, 73, -31, -23, -16, 8, -85, 64, -76, -99, -35, 53, -40, -74, 20, 30, -96, 46, -45, 58, 56, 64, -7, -14, -85, 61, 51, 68, 63, -55, 62, 44, -87, -60, -62, 19, -76, 61, 4, 34, 70, -60, 5, -1, 19, 89, 73, 62, 43, 89, 36, -18, -88, 24, -73, -89, 11, -67, 58, 16, -21, 82, 15, -36, -14, -22, -34, 85, -3, -71, 86, 36, 54, 71, 91, -21, -68, 78, 9, -57, -2, -94, 78, -78, -100, -74, -27, -111, -32, 74, 55, 14, -86, -87, -6, -72, -47, -71, -50, -33, -18, -85, 2, 71, 25, -28, 71, -78, -97, -9, 63, 81, 44, 32, -86, -90, -39, -65, -77, 59, 23, 35, 66, 0, 81, 89, -47, -16, -58, 76, -33, 27, -72, -86, -14, -28, 68, 42, -43, 45, 23, 65, 42, -52, 51, -84, 17, -83, 18, 49, -77, 64, -15, 54, 4, 19, -10, -75, 18, -7, 42, -35, 63, -56, 76, 63, -38, -15, -61, -76, -46, -73, -78, -26, -96, 77, 9, -86, 46, 32, -91, -4, 84, 64, 37, 8, 76, 70, 5, -70, -90, 44, -89, 0, 44, 38, -71, -92, -76, 26, -41, 62, -52, -86, 3, 67, 55, -2, 51, -64, -8, 39, 72, 82, -8, -73, 14, -12, -64, 14, 
  -91, -17, 93, -9, -80, -79, -79, -54, 63, 23, 94, -82, -79, 65, -19, 29, 8, -17, 6, 79, 66, 37, 46, -86, -104, 96, 21, 52, 51, 1, 9, 23, -87, -9, 77, 53, 8, 44, 64, 51, -21, -94, -9, 60, 54, 38, -37, -63, -8, -91, 1, -8, 36, -81, -71, 31, 20, 84, 53, 41, 8, -99, -72, -5, 42, 68, 21, -8, -4, -69, -41, 29, -89, -70, -85, 0, 68, 54, -78, -96, -59, -10, 92, -75, -81, -114, -74, -16, -7, 82, -80, -23, 9, 9, -28, 26, -77, -19, -5, 30, -12, 78, 24, 4, 69, -49, -82, -50, -38, -49, 37, 61, -91, -91, 90, -94, -58, 64, 84, 19, 52, -76, 17, -73, -83, -40, -74, -82, 15, 16, 16, -51, 54, -32, 58, -39, -88, -10, -92, 21, 84, -28, -20, -41, -38, -76, 75, 65, 11, -27, 78, -99, -57, 94, 55, -31, -79, -20, -37, -53, 27, 23, 34, 19, -46, 37, 3, -11, 26, -98, -16, -1, -38, -69, -102, 33, 36, -75, 57, 2, -58, -69, 33, 83, -62, -62, -15, 55, 61, 2, 54, 27, 70, -41, 42, -23, 93, 51, 63, 70, 18, 34, -9, -27, -14, 17, -48, -60, -77, -19, 91, -53, -41, 64, 18, -74, 27, -50, -44, 12, 85, 32, 0, -51, -42, -4, 50, -71, -93, -14, -69, -68, 48, -96, 83, 71, -57, -12, -69, 9, -6, 82, -101, -26, 14, 8, -2, -81, 83, 81, 39, 45, -19, -105, -35, 34, -79, 41, 14, 13, 69, 64, -96, 41, -46, 57, -88, 8, -35, -100, -30, -97, -14, 4, 22, -76, -54, 22, -50, -76, -69, -30, 42, -29, -64, -96, -35, 50, -39, 64, -62, -50, -52, -95, -51, 66, -48, -88, 16, -108, -70, 65, -91, 40, 56, -36, -52, 3, -94, 19, 10, 65, 67, -67, -73, -42, -70, 3, 64, 30, -21, 68, -19, -74, -24, -84, -39, 26, 8, 59, -44, -72, 43, -42, -10, 80, 58, -40, -10, -6, 49, -34, -68, 66, -72, -78, 27, -22, 52, 10, 30, 80, 25, 19, 75, -42, 37, 45, 76, -50, -67, -60, 53, -17, 41, 56, -66, -97, 49, 86, 68, -82, -27, 19, -23, 41, 9, -13, -26, 79, -25, 51, -25, 46, -94, 3, -22, 2, -28, -97, -34, -67, -62, 54, -6, -14, 73, -54, 29, 5, -96, 32, -59, 71, 12, -31, -65, -5, -27, 41, -30, -109, -46, 51, 85, 78, -11, 81, 4, 3, 4, 80, -34, -65, -91, -109, 78, -86, -46, -69, -54, -93, 74, 69, 90, -45, 74, -19, -67, 20, -29, 14, -21, -35, 28, -16, -23, -40, -79, 4, 99, 16, -6, -10, -78, -52, 12, -11, -97, -60, -4, 64, 41, 49, 40, -102, 87, -95, 52, -39, 42, -84, -29, 33, 57, -69, -52, -36, 70, 77, 52, 15, 66, 44, 82, -33, 42, -7, -102, -62, -31, -25, 12, 15, 42, 43, -1, -90, -114, -52, -92, 14, -76, 29, -53, 74, -1, 27, -12, -36, 19, -17, -26, 102, 85, -68, 46, 21, -75, -79, -49, 24, 73, -41, -66, 40, 47, 32, 65, -66, -93, 62, -69, -29, 21, 30, 16, -55, -58, 69, 25, -106, 87, -85, 5, -46, -90, 32, -19, 30, -81, -47, -30, 44, -13, -45, -22, -40, -83, 84, -36, -15, 79, -42, 37, -14, -89, -36, -23, 75, -49, -38, 0, -1, -50, 81, 59, -36, 3, -49, 26, 29, -57, -5, -3, -95, -87, -24, 86, 52, -73, 89, -22, -106, 7, -26, 12, -23, -92, -22, 45, 15, 11, -88, -14, 57, 22, 63, -78, -81, 79, -10, -81, 42, -78, 81, -101, 14, 94, 46, -52, -20, -90, 43, -84, -88, -31, 40, -12, -20, 45, 7, -26, 15, 86, -72, -68, 4, 4, -30, -85, -43, 88, 13, -10, 20, -82, 41, -111, 60, 53, -62, 71, -30, -75, 26, 59, 68, 29, -1, 3, 26, -47, 23, -23, 64, -25, -86, -48, -61, -92, -7, -83, -31, 38, -11, 28, -83, 24, -50, -108, -13, -3, 49, -56, -59, 59, 50, -107, -11, 79, -90, -25, -23, 33, -41, -36, -67, -3, -68, -24, 36, -7, -33, -68, -21, 59, -30, 50, 80, -66, 77, 5, -15, -19, 36, -69, -1, 5, 52, 38, 56, -68, -18, 59, -32, 40, -16, 1, -53, -49, -22, 68, 26, 2, -60, -81, 41, 61, -116, -8, -96, -58, 2, -11, 18, -100, -67, -85, 47, 33, -15, -78, 80, 27, 8, 85, -89, 56, 29, 31, 5, 67, 53, -95, -115, 48, 44, 61, 15, 64, -73, -24, 54, 11, -19, 57, 23, 61, -75, 24, -81, -65, 56, -97, -28, -17, -12, -69, -17, 74, -53, 52, 66, -10, -35, -39, -57, -56, 76, -67, 75, -59, 48, -50, -49, -74, -97, -82, -45, -34, 24, -48, -22, -17, -21, -108, 32, -71, 3, 10, 32, 64, -35, 91, -32, 33, -22, -56, 26, -41, 85, -68, 87, 22, 63, 15, -4, -78, -88, 55, -67, 61, -14, 85, 34, 67, -46, -96, -4, -14, -87, -79, -71, -9, 73, 12, -64, 90, -63, 58, -118, -57, -32, -57, -81, -50, 7, -62, 4, 44, 78, -97, 72, 23, 54, -14, -58, -93, 17, -98, 46, 26, -80, -86, -25, 72, -8, -56, 40, 38, 73, -31, -77, -86, -2, 15, 91, 26, 0, -7, 75, 10, -80, -36, 95, 73, -45, 28, 20, -39, 45, 27, 84, 16, 46, -37, -100, -40, -93, -78, 62, 27, -82, 78, 47, 24, 87, -61, -4, 13, 71, -72, -79, 69, -90, 29, -12, -61, -112, -62, 91, 45, -52, -24, -33, -54, -20, -48, -115, 23, 6, 36, -60, -50, -49, 30, -62, 57, -60, -115, -6, 68, -25, -23, -68, 3, 42, -28, -3, 68, 55, 73, 81, -50, -41, 76, 8, 12, -67, -103, 58, -68, 86, 46, -55, -95, 72, 54, -47, 62, 0, -81, -102, -63, 96, 93, 31, -99, 23, -101, -41, 76, -18, 1, -74, 81, -37, -23, 62, -99, -103, 36, 78, -10, -92, -90, -20, -3, 39, 49, 60, -78, 46, -84, -1, -74, 23, 14, -6, 74, -17, -29, 42, -55, -67, -90, -64, 39, -68, -33, -82, -50, -50, 34, -6, 79, -13, -39, 59, 72, 3, -12, -80, -43, -68, -67, 43, -64, -41, -44, 30, -30, -67, -54, -29, 10, -75, 82, 39, 28, -56, 43, -81, -32, 31, 33, -79, 69, -27, -13, 32, 58, 62, -65, -49, 16, 56, -108, 89, 95, -47, 51, -86, -69, 64, 68, 55, 55, -17, 29, -57, -16, 71, -81, 46, 89, -48, 56, -105, 74, 35, -20, 30, -94, 67, -16, -98, -94, -71, -57, -62, -81, -66, -75, 54, -48, 86, 54, -105, -12, 48, 45, 70, -90, 51, 31, 30, 53, -76, 63, -113, 36, -22, -94, -86, 27, -11, 90, -20, -22, -57, -57, -16, 43, 63, -37, -101, -43, -50, -77, 15, 39, -16, -3, -55, -37, -98, 2, -82, -86, -39, 26, 15, -79, 52, -86, -46, 3, 38, 51, 44, 79, -77, 45, 29, 58, 14, 48, 3, 26, 26, -29, -12, -77, 47, -33, -4, 48, 0, -79, 33, -30, -27, 4, -2, 21, 8, -3, 35, -50, -88, 24, 47, 69, -66, -3, -75, 5, -112, 46, -15, -68, -3, -18, -104, -84, -53, 8, -44, -22, -81, 33, -53, -67, -17, -9, -19, -27, 22, 89, -8, 19, 17, 26, -65, -94, 50, 76, -10, -25, -107, 70, 39, -34, -76, -102, -29, -100, -77, 11, 52, -100, -81, -41, 19, 54, -51, 46, -13, 67, -81, 21, -106, 27, -62, -43, 54, 18, 91, 62, -17, -32, -38, -65, -91, -73, -30, -77, 41, -3, -1, -86, -14, -98, 35, -49, -31, -14, 22, -18, -115, 70, -20, -7, 54, 14, 12, 41, -118, -81, -39, -32, -101, -79, 23, -4, -94, -17, -63, -58, 48, -96, -110, 56, -9, 40, -54, -71, -81, 46, 24, 36, 37, -24, -3, 3, -12, 66, 20, -2, 48, 11, -69, -86, 26, 26, 50, 33, 56, -118, -23, -93, -30, 79, -10, -66, -44, -42, -95, 21, 34, 85, 87, 64, -20, -22, -9, -20, -90, 49, -38, 83, -103, 36, 7, -33, -52, 20, -66, -88, -57, -92, -48, -64, 10, 74, -96, 27, -66, 29, -1, 32, 2, 77, 45, 75, -88, 93, -50, -26, -37, 16, -39, -70, -44, 57, -81, -49, 49, -37, 64, 20, 46, -95, -11, 37, -1, -42, -64, -17, 7, -78, -55, -76, -18, -65, 89, 63, -45, -9, 86, 20, 48, 83, -77, -20, 52, -2, -99, -17, 42, 80, -29, 72, -11, -72, -1, -30, -67, -76, 44, 45, 74, -8, 66, -33, 69, 72, 50, -56, -10, 90, 11, 59, -16, -36, 14, 3, 46, -69, -52, 38, 75, -90, -91, 15, 93, -1, -46, 31, 25, -24, -77, -51, -48, -108, -11, -83, 57, -67, 41, 78, 7, 58, 27, -72, 72, 61, 94, -91, 41, 83, 65, -16, -93, -59, -37, 4, -92, 32, 55, -71, 14, -4, -7, 84, 73, 0, -93, -51, -37, -96, -3, 10, -10, 58, 25, 5, -33, 92, 28, 113, 90, -23, -5, 22, 10, -70, -80, 61, -71, -76, -35, -62, -81, 20, 64, -90, -37, 89, 58, -77, 9, -74, 81, -10, -96, 71, -53, -41, 64, -15, -111, 9, 36, 7, 27, 47, 36, 63, -73, -90, -10, -17, 65, -86, -38, 64, -84, -48, -46, 28, 35, 74, 40, -69, 97, 78, -32, 57, 62, 92, -24, -72, 15, 11, -116, -82, -12, -92, -28, 29, 39, 68, 28, -25, -81, 35, 67, -24, -7, 81, 29, -40, 41, -92, 23, 30, -87, -57, 15, -79, -51, 10, 13, 45, -42, -31, 60, 14, 38, -117, 21, 25, 30, -8, 68, 16, 9, 34, 67, 94, 17, 69, -1, 38, -60, 17, 18, -14, -16, 94, -36, -71, 55, -91, -83, -7, 64, -70, -115, -11, -50, 56, -15, 81, 63, -63, -44, 48, 53, -70, -82, -48, 55, 17, -50, 62, 56, 43, -25, 58, 30, 92, 19, 84, -83, 37, -72, -59, 28, -93, -5, -20, -90, -65, -39, 42, -2, 54, 83, -64, -8, -29, -36, 60, -70, -59, 16, 3, -36, -87, 24, 37, -1, -9, -35, 4, 53, -56, 8, -23, -114, -1, -105, 14, -90, -52, -89, -18, -29, -46, -64, 36, 92, -66, 4, 38, -108, 32, 84, -71, -123, -67, 59, -36, 65, -46, -100, -38, -80, -40, 42, -42, 38, -2, -46, -47, -70, -110, -6, -65, 55, -43, 28, 46, 28, -58, 18, 89, -114, 4, 103, -67, 35, -125, -2, 81, 58, 21, 52, 115, 96, 22, -69, -14, -77, 20, -57, -23, 14, -34, -52, 26, 66, -20, 8, 28, -56, 26, -75, 59, 9, 70, -82, -48, -107, 18, -60, 42, 45, -13, 16, -62, -82, -86, -118, -16, -20, 81, 58, -17, -40, -52, 6, -78, -83, -52, -1, -116, 78, 10, 42, -3, -6, -14, 67, -62, -71, 19, -19, -70, 81, 52, 57, -71, 90, -9, -4, -33, -6, 64, -42, 22, -69, 53, 17, 17, -67, -60, 20, -72, -38, -83, 28, -13, -91, 68, 100, -30, 65, 7, 37, -9, 61, 57, 35, -74, -43, 68, -56, 93, -13, 12, -119, 74, -101, -74, -85, -56, 39, 79, 34, 55, -97, -35, 18, -40, -53, 69, 64, 37, -68, 65, -35, -38, 30, -28, -95, -3, -78, 79, -90, 12, -17, 19, -34, 67, -40, -85, -87, -73, 18, -4, -13, -101, -53, -12, 67, 84, -23, -55, 93, -93, -107, -83, -12, 13, -55, -53, 15, -93, 44, 77, -104, 86, -67, -27, -119, 91, -42, -98, 19, -23, 0, -47, -3, 41, -49, 12, -105, -59, -32, -28, -47, 71, -76, 62, 7, 12, -77, -10, -112, -11, -2, 38, 93, -34, -47, 31, 45, 82, -23, -14, 12, 71, 22, 72, 6, 49, -46, -54, 68, -84, 27, 67, 51, 37, -51, 19, 33, 11, -25, -80, -25, -13, 74, 48, -18, 55, -80, 83, 77, 57, -14, 35, 16, 15, 19, -27, -100, -8, 6, 46, 51, 71, -8, 66, -49, 22, 49, -25, 6, -70, -12, -44, -99, 9, 80, 54, -89, 58, -17, 79, -7, -42, -50, 32, 61, 73, -22, -2, -15, 30, 24, -85, 0, 2, -48, -92, -24, -62, -23, -10, 93, -68, -84, 11, -12, -102, -3, 75, -61, 49, -56, 14, -92, 93, 53, 30, 31, 19, -46, -39, 1, 19, 5, 31, 50, -2, 48, -6, 80, -24, -5, 43, 64, 82, 95, -76, -53, -93, 64, 51, -33, 10, -20, 25, -78, 10, -23, -79, 33, -20, 64, -38, 75, -48, -28, 42, 21, -24, 86, 56, 43, 102, 26, -65, 23, 12, 30, 65, -32, -49, 24, -89, 65, -15, -98, -23, -60, 69, -69, 26, -90, -77, 21, -80, -2, 4, -82, 67, 2, 40, -69, 46, 37, -56, -16, 62, 92, -18, 23, 88, 24, -57, 38, 11, -113, -94, 16, -94, -67, -27, 55, 92, 6, -29, 77, -34, -16, -47, 78, 12, -108, -59, 11, -63, 63, 91, 47, -112, 44, -61, -61, -52, -106, -36, -78, 81, 24, -21, -64, 37, -77, -62, -64, -54, -4, -63, 39, -11, 27, -91, 81, 40, 33, -27, 31, -16, 6, 27, 68, -114, 54, -88, -17, -31, -45, -33, 97, -39, 8, 0, -27, 62, -94, -12, -28, -82, -13, 14, -98, -45, -63, 11, 28, -79, -70, 18, -22, 22, 53, 32, -119, -116, 89, -62, 28, 89, -60, 117, 16, -6, 24, -55, -13, -69, -69, -60, -90, 97, -23, 37, 63, 73, 78, -11, 74, -19, 8, -44, 30, 1, -9, -40, -28, -60, 87, 55, 94, 63, -100, -45, 8, 58, -80, 89, -89, 62, -2, 29, 75, 72, -33, 7, 54, -21, 72, -12, 75, -75, -66, 20, 25, -56, -60, -24, -22, -33, 66, 58, -74, 61, -11, -44, 27, 63, 28, -9, -56, -75, -104, -3, 90, -29, 69, -89, -101, -14, 72, 19, -13, -47, -70, 75, -23, 63, 8, -30, -104, 39, 90, -66, -69, 67, -63, 14, 37, 4, -49, -50, -106, -58, 31, 21, 31, -35, 65, -30, 58, 46, 88, 2, 7, -62, -108, -58, -33, -24, 68, -76, 30, 28, -30, -31, 59, -85, 17, 46, -85, -7, 55, 89, 1, -49, 22, -4, 75, -21, 2, 5, 33, -59, -62, -61, -69, -93, -114, 65, 41, -5, -62, -23, 54, -19, 82, 42, -15, 74, -38, -57, 41, 4, -65, -13, 59, -10, 10, -90, -8, -68, 35, -69, 17, 18, -79, 32, -93, -85, -32, -49, 43, -53, -55, 32, -82, -30, -81, -35, -17, -71, -97, 34, 21, 99, -76, -57, -116, -42, 48, -48, 49, -74, -46, 49, -35, 62, 13, -119, 75, -96, -72, 70, -73, 93, -76, 88, -22, 15, 65, -69, 10, 55, -59, -49, -79, -46, -81, 51, -54, -91, -121, -77, 45, 26, -7, -19, 54, -53, 55, -59, 85, 85, -70, -13, 22, -71, 13, -34, 50, 47, -16, 12, 58, -104, 74, 83, 53, 67, -3, -33, -93, -76, -12, 58, 15, 15, -35, -69, 53, 56, -92, -43, -73, 94, 54, 31, -34, 74, -88, 57, 37, -29, 22, -30, -90, 28, -45, -13, 66, -48, -64, 5, 26, -49, 29, -5, 27, 29, 72, 4, -24, -77, -122, 60, 56, 84, -43, -6, -33, 27, 85, -58, 25, 65, -97, -81, -80, -11, -71, -86, 59, -81, -46, -37, -43, 76, -106, 82, 70, -84, -11, 62, 27, -31, 77, 12, -83, 72, 18, 86, -12, -10, -54, -15, -12, -76, 76, 36, 63, -37, 89, 52, 15, -91, -87, 31, 37, -89, -52, 68, 92, -84, -66, 85, -32, 85, 93, 63, 82, 17, -23, -56, -30, 74, 94, -93, 64, 46, 12, 84, -82, 50, -43, -63, -20, -70, -14, -68, 14, -7, 17, -84, -69, -10, -36, 15, 63, -6, -32, -29, 89, 61, -99, 6, 22, -45, 80, -7, 1, 14, -80, 49, 73, 39, -23, -80, 94, 69, -92, -79, 8, -2, -89, 58, 90, -52, -12, 68, -69, -10, -3, 32, 32, 58, 28, 32, -67, -78, -21, 21, -71, 51, 34, 81, -3, 65, 57, -13, 63, 83, 39, 30, -118, -8, -54, -81, -37, 68, 11, 20, -102, -46, 13, -94, -46, 63, -43, 33, -41, 23, -3, 1, -33, 50, 24, -22, 73, -9, 82, 32, 94, -56, 99, 103, -78, 23, -89, -20, 39, 112, -7, -60, -68, 17, -80, -32, 106, 31, 58, 93, 70, -4, -51, 75, 25, -12, -21, 13, 48, -53, 1, 36, -65, -43, 61, 17, -98, -57, 38, -20, 45, 99, 92, 42, -111, -6, -37, -22, 46, 95, -95, 26, -72, -9, 33, -4, 64, -87, 54, -10, -85, 98, 65, 39, 86, -61, 1, -41, 53, 3, 14, 50, -20, -47, -55, -58, -97, 65, 28, -44, 86, -84, -91, -65, 55, -66, 47, 70, 61, 3, -8, -39, 77, 103, -30, 105, 71, 40, 67, 70, 6, -53, 26, -37, 103, -64, 10, -65, -21, -82, -37, 62, -38, -34, -32, 71, -50, 29, 56, -1, -109, -22, 86, -72, -28, 20, 15, 8, 94, 96, 55, -46, -102, 13, -117, -20, -98, 35, -43, -28, 65, 5, -5, 20, -55, 51, -2, -37, -2, 25, -44, 49, 16, -79, 76, 85, 71, 61, -87, 108, 81, 26, -30, -55, -1, 43, -41, -72, 21, 14, 44, 78, 39, -18, 56, 38, 82, 97, -1, 16, 17, 56, 72, -75, -110, -51, 25, -2, 3, -32, -9, 10, -16, -58, 10, -57, -116, -6, -77, -32, -65, 69, -91, 31, 19, 10, 54, -60, -13, -34, 61, 79, -13, -12, 55, 2, 85, -87, 16, -46, 63, 54, 26, 71, 31, -11, 83, 59, -17, -56, 53, 43, -23, -96, -48, -16, 31, -43, 52, 3, 42, 77, 71, -41, -38, -59, -62, 64, 6, -61, 65, -2, -38, -73, 103, 50, 18, -89, 90, -32, -76, 61, 22, -57, 87, -46, -48, -18, -102, -69, 67, -45, -43, -13, 20, 17, 61, 96, 32, -47, -57, -103, 76, -92, 45, -3, 55, -18, -25, -102, 41, -35, 24, 67, 41, -37, -70, -14, 65, -31, 27, 19, 9, 32, 8, 112, 24, -96, -42, 77, 63, -33, 76, -26, -81, 103, -23, -74, 63, -49, 63, -44, -57, 21, 40, -8, -10, -37, 6, -24, 10, -67, 52, -85, -56, 58, -41, 72, -45, 51, -84, 28, -42, -73, -9, 95, -75, 12, 20, -9, -56, -3, -78, 6, 105, 29, -11, -18, 54, -30, 16, 0, 6, 81, 71, 13, -44, 51, -72, 104, 34, 40, 15, 86, 33, -34, 17, 74, 9, 39, -17, -4, 83, -24, 0, -25, 78, -52, 62, -12, -72, -45, 31, 84, 27, 15, -2, -4, 28, 90, 100, 66, 46, -72, 38, -74, 91, -93, -58, 57, 15, 44, -28, 57, -32, -81, -63, 43, 35, -48, 101, 33, -11, 76, 97, -38, -59, -97, -97, 25, 14, 107, -73, -66, -8, -63, 19, 42, -60, 63, 34, -32, 33, -29, -28, 42, 36, 8, -11, 3, -111, 85, 40, 23, -43, -52, -29, 78, 46, -51, 58, 7, -40, -47, -57, 88, -35, 101, -34, 85, 22, 94, 31, -69, 22, 49, 75, 82, -7, -5, 81, -61, -77, 13, 52, -11, -18, -46, 114, 60, -32, -12, 61, -22, 73, -67, 30, 117, -98, 36, 21, -18, -21, 116, 14, 29, -17, 65, -53, -83, 90, 102, -9, 73, 43, 32, -5, -46, 65, 60, 12, 3, 43, -36, -95, -74, -98, 121, 91, 109, -53, 59, -8, 42, 67, 95, -28, -6, 93, 87, 14, 99, -56, 66, 79, -29, -99, 78, -80, -18, -19, -29, 83, 119, -54, 15, -75, 78, -59, 68, -14, -56, 19, 33, 71, 47, 73, 93, 2, 14, 23, -5, 12, 24, 76, -97, 4, -1, -21, -66, -80, -26, 38, -37, 8, 36, 7, -54, 40, 35, 16, -47, 75, 12, -49, 89, 8, -87, -16, 23, -20, 59, 64, 56, 89, 45, -21, 1, -53, -12, -46, 68, -5, 73, 43, 88, -71, -62, -65, -24, -120, 84, -59, -15, 8, 17, 38, -35, 20, -5, -82, -70, 48, 43, 48, -5, -18, 21, 88, -41, 49, 71, 56, -78, -34, -22, -23, -25, 19, 13, 13, 95, 5, 0, 17, -30, 49, 26, -20, 82, -35, -28, 24, 76, 23, 31, -5, -14, 92, 27, -69, -33, -2, -52, -55, 81, 0, 18, 59, 10, -22, 84, 111, 44, 64, -68, 92, -37, -66, 86, 11, 14, 48, 71, -65, -54, 10, -75, -23, 72, -45, -71, -7, 85, 47, 46, 35, -40, 95, 48, -12, -16, -65, 33, 4, 10, 41, -19, -82, -9, 80, 113, -80, -14, 94, -3, -61, 54, 64, 10, -44, 55, 78, 50, -65, -19, 81, -73, 111, 11, -32, 13, -82, -6, -7, 70, -48, 30, 7, -52, 7, 77, 39, -1, -33, 73, -51, -78, -47, -81, -64, 76, 57, 77, -31, -69, -25, 66, 64, -25, 91, -89, -27, -43, -55, -37, 53, 27, 24, 4, -68, -71, -62, -55, 60, 18, 25, 19, 89, -9, -95, 0, 108, 56, -57, 38, -28, -28, 15, 68, -94, -104, 76, 4, 33, -84, -26, 83, 17, -55, 46, -9, 38, -48, 104, -5, 51, 56, 93, 52, -80, 2, 11, 63, -17, 48, -1, 105, 26, -49, -80, 44, 52, -7, -81, 46, -18, -31, 99, 87, 57, -7, 80, 34, -8, -68, -66, 56, 34, -39, 66, 25, 20, 96, -74, -48, -3, 9, 62, -79, 37, 40, 42, -44, -47, 11, 3, -23, -29, 29, 1, 91, -56, 17, 0, -10, 94, 0, 23, -48, 0, 35, -71, -9, -41, 112, 20, -83, 21, -72, -63, -81, 32, 14, -47, -11, -54, 17, 41, 82, -87, 73, 19, -45, 19, -23, 105, 31, 65, -83, -62, 122, 46, 6, -42, 58, 87, -37, -52, 38, -12, 29, -17, -82, -49, -31, 16, 4, -38, -12, -32, 51, 68, -42, 12, -85, -21, 16, 9, 55, 6, -32, -33, 99, -37, 114, -67, 81, 109, -45, -66, -3, 46, 102, -28, -33, 93, -10, 41, -20, 16, -23, 62, -77, -27, 59, 85, 40, -85, -13, 27, -77, 62, -29, -51, 44, -15, 15, -102, -11, 90, -65, 74, -20, 76, -54, -50, 30, 71, 0, -43, -47, -81, -77, 31, 7, 12, -62, -105, 52, -19, 99, -44, 86, -80, 13, 47, 8, 55, 7, 62, 8, -77, -74, -56, 44, -12, -80, -25, -33, -30, 13, 39, 18, -30, -38, 46, 2, 78, 21, 39, -78, -37, -3, -82, -66, -35, 75, 25, 111, 42, 87, -113, 7, 61, -76, -68, 26, 57, 10, -1, -8, -50, -44, -47, 51, -67, -98, -70, 13, 36, -65, 17, 58, -87, 37, -83, -25, 33, 32, 47, 19, -50, 46, -90, -73, 51, -11, 87, 34, 61, 57, -34, -45, -96, -11, -33, -25, 68, -81, 37, 13, -94, -25, -31, -61, -92, -51, 27, 67, 35, -11, -28, 23, 5, 112, -30, -83, 112, -72, 78, 63, 51, 74, 14, 15, 15, 39, -3, -24, 18, 12, 82, 40, 8, -59, 9, 13, 96, 50, 51, 4, 60, -78, -78, 35, 1, -47, -93, -75, 1, -95, 38, 85, 23, -76, 27, -31, -63, -5, 95, -28, 19, 45, -27, -49, -57, 25, 104, 30, 47, 44, 62, -17, -63, -37, -40, 87, -78, 30, 31, 38, 80, -44, -79, 23, 51, 12, -75, 90, -44, 33, 36, 35, -13, 44, -33, -55, -67, -10, 76, 8, -84, 21, 77, 76, 21, -30, -27, 84, 0, 58, -75, -71, -11, -64, -85, 15, -33, -65, 67, -2, -49, 80, 86, 79, -42, 7, 28, -70, 67, 44, -64, -58, 68, -49, 52, -21, -17, -78, -117, 80, -59, 53, 88, 52, -54, 68, 8, -39, -61, 42, 9, 111, -8, 4, -8, -53, -41, -66, 30, 15, 88, -56, 47, 45, 67, 92, -41, 8, 36, -23, 106, 122, -90, 115, -84, -3, -8, -72, -7, 2, -19, 4, -41, 40, 82, 52, -1, -6, -35, 14, -6, 64, 60, -97, -45, -77, -48, 4, 79, -51, 62, 63, 35, -10, 83, 87, 80, 54, -11, 65, 42, -72, 78, -15, 34, -94, 7, -15, -4, 64, -66, 12, 111, 82, 7, 59, -5, -25, 70, -78, 25, 62, -42, -18, 84, 8, 2, -24, 47, 26, 61, -4, 8, -48, -28, -39, 18, -44, -64, -28, 16, -76, 65, -6, -8, 9, 113, 69, -66, -17, -34, 37, 59, 7, 46, -58, 88, -29, -27, 36, -12, 36, -14, 29, 76, -49, -14, 116, -97, -13, -5, 41, 55, 9, -37, 78, 58, -4, -58, -27, 70, -69, -50, -96, 20, -60, 73, 89, -91, -69, 20, -7, -14, 89, 83, 115, 39, 63, -81, -40, 45, 11, 61, 6, 78, -43, 71, -31, 20, -34, -75, 73, -43, 70, -27, -83, 93, 41, -4, 71, 45, -50, 5, -64, -1, 48, -8, 28, -35, 12, -2, 41, -63, -29, 96, 33, 58, -84, 9, 28, -4, 51, 36, -39, -107, -66, -19, -3, 2, 105, -101, -52, 32, -65, -63, -51, 16, -13, 60, 60, 7, 53, 5, 15, -58, -66, -69, -84, -60, -18, -81, 97, -20, 104, 69, 76, 20, 74, 66, -92, -64, -47, -52, 21, -28, 12, 36, 61, -31, 45, 8, -5, 58, 33, 83, -59, -78, 40, 84, 18, 49, 31, -17, 15, 74, 35, 121, 55, -91, 84, -48, -13, 68, 19, 12, -6, -29, 33, 65, -92, -42, 8, -106, -67, -36, 13, 69, 43, -49, -85, -13, 5, -63, -68, 82, -9, 44, 19, 120, 105, -59, -17, -55, -1, -54, 88, -36, -79, -13, -39, -69, 16, -52, -32, 68, 68, -57, -11, 70, -90, -21, -23, -67, -61, -93, -61, -50, 96, -15, -79, 113, 12, -57, 85, 83, 98, 44, -48, -62, 36, 10, -87, -88, 54, 68, -34, -53, -13, -52, -41, 15, 61, 30, -2, -61, 14, -73, -51, 67, 14, -58, -22, -64, -17, 28, 78, -61, 30, -51, 17, 83, 40, 94, 90, 22, 47, -25, 70, 78, 21, 19, 20, -50, 33, 5, -8, -100, -3, 46, -42, 52, -31, -94, 39, 118, -14, -101, 38, -69, -74, -74, 59, 57, -20, 104, 1, -92, -58, 25, -14, -15, 85, 88, -31, 26, 24, -45, -5, 90, 57, 39, -1, -24, -42, 15, -88, 42, 91, 0, 0, -11, -80, 50, -42, -61, 90, 34, -54, -56, -21, -13, 19, -52, -64, -36, -50, -77, -71, -44, 20, 33, 64, 67, 34, 58, 1, 37, -22, -24, -75, -57, -28, 34, -44, 9, -56, -112, -2, -27, -50, -81, 79, -24, -91, 17, -76, -85, 88, 105, -56, 72, 13, -46, -14, 65, 6, -12, -78, -18, 76, 26, -79, -102, 47, -88, -57, 24, -21, -31, -21, -95, -77, 44, -74, 38, -54, 65, 94, 0, 26, 36, -4, 29, 86, -30, -9, 70, -17, -40, -1, 46, -61, -80, -87, -80, 25, -37, -44, -83, -19, 42, -83, 5, 3, 75, -93, -3, -100, -84, 33, 7, 56, 26, 51, 16, 62, 1, 14, -73, -84, 17, 7, 87, -64, 82, 76, 6, 15, -33, -26, 35, -42, -85, 89, 19, 22, -39, -100, 73, 77, 23, -40, -80, -44, 62, 33, -39, 1, -38, 47, -65, -32, -68, -20, -13, 24, 73, -9, 59, -36, 42, 34, -4, -49, 18, -72, -10, -45, -74, -55, -44, -96, -62, -9, -1, -23, 79, 11, 33, -102, -2, -22, 55, 81, -40, 7, 1, 47, -29, 89, 63, 61, 38, 47, 62, -13, -83, -55, -67, 17, -94, -55, -50, 20, -10, 61, -73, -51, 76, -17, 17, 82, -74, 52, -60, -62, 58, -80, -6, 70, 3, -22, 48, -19, -87, 1, -1, 13, 29, 6, -35, -20, -41, -79, -31, -76, -55, 16, 77, -86, -75, 21, -72, -27, 19, 21, 7, 67, 74, -93, 81, 38, -14, -86, 62, -65, 4, -86, -77, -24, 